{"learner":{"attributes":{"scikit_learn":"{\"n_estimators\": 100, \"objective\": \"reg:squarederror\", \"max_depth\": null, \"learning_rate\": 0.5, \"verbosity\": null, \"booster\": null, \"tree_method\": null, \"gamma\": null, \"min_child_weight\": null, \"max_delta_step\": null, \"subsample\": null, \"colsample_bytree\": null, \"colsample_bylevel\": null, \"colsample_bynode\": null, \"reg_alpha\": null, \"reg_lambda\": null, \"scale_pos_weight\": null, \"base_score\": null, \"missing\": NaN, \"num_parallel_tree\": null, \"kwargs\": {}, \"random_state\": 0, \"n_jobs\": null, \"monotone_constraints\": null, \"interaction_constraints\": null, \"importance_type\": \"gain\", \"gpu_id\": null, \"validate_parameters\": null, \"n_features_in_\": 3, \"type\": \"XGBRegressor\"}"},"gradient_booster":{"model":{"gbtree_model_param":{"num_trees":"100","size_leaf_vector":"0"},"tree_info":[0,0,0,0,0,0,0,0,0,0,0,0,0,0,0,0,0,0,0,0,0,0,0,0,0,0,0,0,0,0,0,0,0,0,0,0,0,0,0,0,0,0,0,0,0,0,0,0,0,0,0,0,0,0,0,0,0,0,0,0,0,0,0,0,0,0,0,0,0,0,0,0,0,0,0,0,0,0,0,0,0,0,0,0,0,0,0,0,0,0,0,0,0,0,0,0,0,0,0,0],"trees":[{"base_weights":[4.5508206E5,3.2174844E5,5.073752E5,3.0520853E5,3.979216E5,4.61846E5,5.813353E5,2.8937766E5,3.6267378E5,3.7125738E5,7.044895E5,4.2303044E5,5.321786E5,5.523851E5,6.6776044E5,2.2680261E5,2.933707E5,3.4340206E5,3.7351625E5,2.5435538E5,3.972294E5,5.877441E5,7.420473E5,4.1380075E5,4.648338E5,5.050634E5,6.3491875E5,5.2763494E5,6.5252144E5,6.9069044E5,6.405696E5,2.1350414E5,2.4683705E5,2.8876238E5,3.0923422E5,3.7878175E5,3.368648E5,4.1191612E5,3.6292556E5,4.9068588E5,3.8162856E5,7.601605E5,6.2950075E5,6.568637E5,4.132463E5,5.4957556E5,4.6333856E5,6.093719E5,4.8309525E5,5.81603E5,6.8125625E5,5.831286E5,5.1572662E5,8.168345E5,6.0822856E5,6.829462E5,8.308289E5,6.3119856E5,6.953092E5,2.3822295E5,3.149425E5,2.7085644E5,2.922356E5,3.1823822E5,2.8882847E5,3.93089E5,5.6712494E5,3.7165538E5,3.3489838E5,4.745377E5,5.534151E5,3.671009E5,4.44556E5,7.657926E5,4.3240472E5,4.0957488E5,4.327993E5,3.3657094E5,6.2360425E5,4.6658744E5,4.4032397E5,4.356705E5,6.2877875E5,4.722842E5,5.1910766E5,7.069992E5,5.3716925E5,7.966668E5,5.949073E5,7.017149E5,5.669887E5,5.091098E5,5.496028E5,6.751551E5,9.0369275E5,5.9886975E5,6.9087575E5,7.2284975E5,6.760796E5,6.370913E5,6.030549E5],"categories":[],"categories_nodes":[],"categories_segments":[],"categories_sizes":[],"default_left":[true,true,true,true,true,true,true,true,true,true,true,true,true,true,true,true,true,true,true,false,true,false,true,true,true,true,true,true,true,true,true,false,true,true,true,false,false,true,true,true,true,false,false,true,true,true,true,true,true,true,true,true,true,true,true,true,false,true,false,false,false,false,false,false,false,false,false,false,false,false,false,false,false,false,false,false,false,false,false,false,false,false,false,false,false,false,false,false,false,false,false,false,false,false,false,false,false,false,false,false,false],"id":0,"left_children":[1,3,5,7,9,11,13,15,17,19,21,23,25,27,29,31,33,35,37,-1,39,-1,41,43,45,47,49,51,53,55,57,-1,59,61,63,-1,-1,65,67,69,71,-1,-1,73,75,77,79,81,83,85,87,89,91,93,95,97,-1,99,-1,-1,-1,-1,-1,-1,-1,-1,-1,-1,-1,-1,-1,-1,-1,-1,-1,-1,-1,-1,-1,-1,-1,-1,-1,-1,-1,-1,-1,-1,-1,-1,-1,-1,-1,-1,-1,-1,-1,-1,-1,-1,-1],"loss_changes":[6.0899845E14,3.0891015E13,2.1104288E14,1.8296963E13,3.5607695E13,1.0582746E14,5.9446642E13,3.8972802E12,7.838315E11,1.2162072E13,1.098505E12,9.467719E12,3.815434E13,4.405348E13,3.2945084E12,2.0200607E11,1.00059316E12,2.3875656E11,9.8190334E11,0E0,4.6284984E12,0E0,5.3536096E10,2.4937654E12,3.18096E11,2.4755923E13,6.718805E12,9.194988E12,2.5310645E13,2.947824E12,9.749576E11,0E0,1.4497402E11,6.4021856E11,5.2210696E11,0E0,0E0,1.5128267E12,4.111089E11,2.1245827E11,2.4285356E12,0E0,0E0,7.6912E11,1.2925167E12,9.412081E11,1.2710419E11,6.1242207E12,3.2723624E12,7.1198814E12,1.4823207E13,4.446365E12,2.3737747E12,8.6193954E12,1.7497294E12,3.5393215E11,0E0,7.784628E9,0E0,0E0,0E0,0E0,0E0,0E0,0E0,0E0,0E0,0E0,0E0,0E0,0E0,0E0,0E0,0E0,0E0,0E0,0E0,0E0,0E0,0E0,0E0,0E0,0E0,0E0,0E0,0E0,0E0,0E0,0E0,0E0,0E0,0E0,0E0,0E0,0E0,0E0,0E0,0E0,0E0,0E0,0E0],"parents":[2147483647,0,0,1,1,2,2,3,3,4,4,5,5,6,6,7,7,8,8,9,9,10,10,11,11,12,12,13,13,14,14,15,15,16,16,17,17,18,18,20,20,22,22,23,23,24,24,25,25,26,26,27,27,28,28,29,29,30,30,32,32,33,33,34,34,37,37,38,38,39,39,40,40,43,43,44,44,45,45,46,46,47,47,48,48,49,49,50,50,51,51,52,52,53,53,54,54,55,55,57,57],"right_children":[2,4,6,8,10,12,14,16,18,20,22,24,26,28,30,32,34,36,38,-1,40,-1,42,44,46,48,50,52,54,56,58,-1,60,62,64,-1,-1,66,68,70,72,-1,-1,74,76,78,80,82,84,86,88,90,92,94,96,98,-1,100,-1,-1,-1,-1,-1,-1,-1,-1,-1,-1,-1,-1,-1,-1,-1,-1,-1,-1,-1,-1,-1,-1,-1,-1,-1,-1,-1,-1,-1,-1,-1,-1,-1,-1,-1,-1,-1,-1,-1,-1,-1,-1,-1],"split_conditions":[8.45E1,2.0005E3,1.115E2,7.45E1,2.5E0,2.0045E3,1.375E2,5.75E1,2.5E0,1.5E0,7.8E1,3.5E0,9.45E1,2.0045E3,1.9925E3,5.25E1,6.95E1,1.9755E3,1.9845E3,1.2717769E5,6.55E1,2.9387206E5,8.35E1,1.9725E3,1.07E2,9.15E1,9.85E1,1.9845E3,2.0125E3,1.595E2,1.525E2,1.0675207E5,1.9735E3,1.9735E3,1.9855E3,1.8939088E5,1.684324E5,1.979E3,1.9875E3,2.0155E3,6.85E1,3.8008025E5,3.1475038E5,2.5E0,1.045E2,1.045E2,2.0035E3,2.0055E3,2.0155E3,2.0115E3,1.095E2,1.9755E3,1.295E2,2.0105E3,1.135E2,1.9845E3,4.1541444E5,1.9985E3,3.476546E5,1.1911148E5,1.5747125E5,1.3542822E5,1.461178E5,1.5911911E5,1.4441423E5,1.965445E5,2.8356247E5,1.8582769E5,1.6744919E5,2.3726884E5,2.7670756E5,1.8355045E5,2.22278E5,3.828963E5,2.1620236E5,2.0478744E5,2.1639966E5,1.6828547E5,3.1180212E5,2.3329372E5,2.2016198E5,2.1783525E5,3.1438938E5,2.361421E5,2.5955383E5,3.534996E5,2.6858462E5,3.983334E5,2.9745366E5,3.5085744E5,2.8349434E5,2.545549E5,2.748014E5,3.3757756E5,4.5184638E5,2.9943488E5,3.4543788E5,3.6142488E5,3.380398E5,3.1854566E5,3.0152744E5],"split_indices":[1,2,1,1,0,2,1,1,0,0,1,0,1,2,2,1,1,2,2,0,1,0,1,2,1,1,1,2,2,1,1,0,2,2,2,0,0,2,2,2,1,0,0,0,1,1,2,2,2,2,1,2,1,2,1,2,0,2,0,0,0,0,0,0,0,0,0,0,0,0,0,0,0,0,0,0,0,0,0,0,0,0,0,0,0,0,0,0,0,0,0,0,0,0,0,0,0,0,0,0,0],"split_type":[0,0,0,0,0,0,0,0,0,0,0,0,0,0,0,0,0,0,0,0,0,0,0,0,0,0,0,0,0,0,0,0,0,0,0,0,0,0,0,0,0,0,0,0,0,0,0,0,0,0,0,0,0,0,0,0,0,0,0,0,0,0,0,0,0,0,0,0,0,0,0,0,0,0,0,0,0,0,0,0,0,0,0,0,0,0,0,0,0,0,0,0,0,0,0,0,0,0,0,0,0],"sum_hessian":[8.7366E4,2.4614E4,6.2752E4,2.0227E4,4.387E3,3.8846E4,2.3906E4,1.5863E4,4.364E3,4.038E3,3.49E2,2.5036E4,1.381E4,1.7913E4,5.993E3,9.55E2,1.4908E4,1.583E3,2.781E3,7.36E2,3.302E3,8.9E1,2.6E2,2.0517E4,4.519E3,1.0931E4,2.879E3,1.4368E4,3.545E3,3.238E3,2.755E3,5.81E2,3.74E2,1.1567E4,3.341E3,2.38E2,1.345E3,5.93E2,2.188E3,4.68E2,2.834E3,2.19E2,4.1E1,4.4E1,2.0473E4,7.2E1,4.447E3,1.897E3,9.034E3,1.345E3,1.534E3,2.53E3,1.1838E4,7.49E2,2.796E3,3.074E3,1.64E2,2.363E3,3.92E2,3.36E2,3.8E1,1.892E3,9.675E3,2.308E3,1.033E3,5.32E2,6.1E1,1.659E3,5.29E2,3.79E2,8.9E1,2.308E3,5.26E2,2.8E1,1.6E1,1.7255E4,3.218E3,2E1,5.2E1,3.88E3,5.67E2,1.93E2,1.704E3,6.959E3,2.075E3,3.48E2,9.97E2,6.53E2,8.81E2,2.98E2,2.232E3,9.917E3,1.921E3,2.88E2,4.61E2,2.519E3,2.77E2,4.36E2,2.638E3,1.936E3,4.27E2],"tree_param":{"num_deleted":"0","num_feature":"3","num_nodes":"101","size_leaf_vector":"0"}},{"base_weights":[2.2769183E5,1.6104467E5,2.538307E5,1.5270816E5,1.9948064E5,2.2617227E5,2.854908E5,1.4474988E5,1.8156998E5,1.853171E5,3.517355E5,2.0749095E5,2.5740155E5,2.7335622E5,3.3487822E5,1.2220619E5,1.477518E5,2.081134E5,1.7858956E5,1.2735025E5,1.9829734E5,2.4592981E5,3.651792E5,2.8875897E5,2.0564969E5,3.6855788E5,2.5194822E5,2.576591E5,3.408195E5,3.268887E5,3.5371616E5,1.0627346E5,1.2916315E5,1.4541084E5,1.544659E5,1.9826303E5,2.6018194E5,1.5808684E5,1.8153475E5,1.2473858E5,1.5473958E5,2.711896E5,1.9031739E5,1.17767914E5,2.5900584E5,3.4144597E5,4.0911003E5,4.3754034E5,2.4697688E5,2.0308839E5,2.2604298E5,3.4366178E5,4.8851528E5,2.9710338E5,2.3979639E5,2.2763538E5,2.6971988E5,4.083826E5,3.1136628E5,3.366361E5,3.1678E5,3.502512E5,4.39888E5,7.8702445E4,1.0835793E5,1.343919E5,1.0705559E5,1.3015859E5,1.4733695E5,1.9977336E5,1.5145956E5,1.6111089E5,2.0685225E5,8.0636664E4,2.6453278E5,1.811335E5,1.5460855E5,1.8302223E5,1.4798244E5,1.03673586E5,1.26001766E5,1.323844E5,1.9283072E5,2.2376302E5,2.9288822E5,2.1532723E5,1.7928767E5,4.2328294E5,2.0302689E5,4.082822E5,5.8810594E5,2.2268236E5,2.9553172E5,1.864758E5,2.1009572E5,2.2350825E5,3.7776172E5,2.5508438E4,3.4690922E5,5.266579E5,3.022037E5,2.5505292E5,4.2166612E5,2.3154744E5,2.6657912E5,2.3079889E5,1.6336777E5,2.6816938E5,4.234512E5,3.128115E5,4.838591E5,4.46742E5,3.0391878E5,3.2908028E5,3.712344E5,3.4989356E5,3.130113E5,3.6058138E5,3.3073047E5,1.2729253E5,4.4292578E5],"categories":[],"categories_nodes":[],"categories_segments":[],"categories_sizes":[],"default_left":[true,true,true,true,true,true,true,true,true,true,true,true,true,true,true,true,true,true,true,true,true,true,true,true,true,true,true,true,true,true,true,true,true,true,true,true,true,true,true,true,true,true,true,false,false,false,true,true,true,true,true,true,true,true,true,true,true,true,true,true,true,true,true,false,false,false,false,false,false,false,false,false,false,false,false,false,false,false,false,false,false,false,false,false,false,false,false,false,false,false,false,false,false,false,false,false,false,false,false,false,false,false,false,false,false,false,false,false,false,false,false,false,false,false,false,false,false,false,false,false,false],"id":1,"left_children":[1,3,5,7,9,11,13,15,17,19,21,23,25,27,29,31,33,35,37,39,41,43,45,47,49,51,53,55,57,59,61,63,65,67,69,71,73,75,77,79,81,83,85,-1,-1,-1,87,89,91,93,95,97,99,101,103,105,107,109,111,113,115,117,119,-1,-1,-1,-1,-1,-1,-1,-1,-1,-1,-1,-1,-1,-1,-1,-1,-1,-1,-1,-1,-1,-1,-1,-1,-1,-1,-1,-1,-1,-1,-1,-1,-1,-1,-1,-1,-1,-1,-1,-1,-1,-1,-1,-1,-1,-1,-1,-1,-1,-1,-1,-1,-1,-1,-1,-1,-1,-1],"loss_changes":[1.5215942E14,7.856703E12,5.4886192E13,4.620781E12,9.388782E12,1.9489488E13,1.7441594E13,1.0555553E12,3.084659E11,2.9942214E12,4.3932818E11,3.0777467E12,7.5048514E12,2.4788806E13,7.5222326E11,1.9355245E11,1.9750139E11,1.7152396E11,2.0891828E11,3.3417069E10,1.8545367E12,4.4910772E10,2.0229128E11,2.763912E12,1.0250879E12,1.5762194E12,6.4864744E12,6.840675E12,8.690296E12,2.9356773E11,3.550059E11,2.4459608E10,1.3553893E11,2.8616897E11,4.603668E11,8.4743815E10,3.0226252E10,1.2236882E10,1.4430083E11,4.9775903E9,2.5564283E10,2.6480109E11,7.770871E11,0E0,0E0,0E0,2.3535079E11,2.0041223E11,3.6238996E11,2.0825223E12,7.9199365E11,4.943113E11,5.3726937E11,1.3144395E13,2.0198761E12,1.0742116E12,3.1264678E12,9.528989E12,2.9796E12,4.142798E11,1.414487E11,2.1226534E11,2.4945623E9,0E0,0E0,0E0,0E0,0E0,0E0,0E0,0E0,0E0,0E0,0E0,0E0,0E0,0E0,0E0,0E0,0E0,0E0,0E0,0E0,0E0,0E0,0E0,0E0,0E0,0E0,0E0,0E0,0E0,0E0,0E0,0E0,0E0,0E0,0E0,0E0,0E0,0E0,0E0,0E0,0E0,0E0,0E0,0E0,0E0,0E0,0E0,0E0,0E0,0E0,0E0,0E0,0E0,0E0,0E0,0E0,0E0,0E0],"parents":[2147483647,0,0,1,1,2,2,3,3,4,4,5,5,6,6,7,7,8,8,9,9,10,10,11,11,12,12,13,13,14,14,15,15,16,16,17,17,18,18,19,19,20,20,21,21,22,22,23,23,24,24,25,25,26,26,27,27,28,28,29,29,30,30,31,31,32,32,33,33,34,34,35,35,36,36,37,37,38,38,39,39,40,40,41,41,42,42,46,46,47,47,48,48,49,49,50,50,51,51,52,52,53,53,54,54,55,55,56,56,57,57,58,58,59,59,60,60,61,61,62,62],"right_children":[2,4,6,8,10,12,14,16,18,20,22,24,26,28,30,32,34,36,38,40,42,44,46,48,50,52,54,56,58,60,62,64,66,68,70,72,74,76,78,80,82,84,86,-1,-1,-1,88,90,92,94,96,98,100,102,104,106,108,110,112,114,116,118,120,-1,-1,-1,-1,-1,-1,-1,-1,-1,-1,-1,-1,-1,-1,-1,-1,-1,-1,-1,-1,-1,-1,-1,-1,-1,-1,-1,-1,-1,-1,-1,-1,-1,-1,-1,-1,-1,-1,-1,-1,-1,-1,-1,-1,-1,-1,-1,-1,-1,-1,-1,-1,-1,-1,-1,-1,-1,-1],"split_conditions":[8.45E1,2.0015E3,3.5E0,7.45E1,7.35E1,2.0045E3,1.395E2,5.95E1,1.9755E3,1.5E0,2.008E3,1.9755E3,8.95E1,2.0055E3,1.485E2,1.5E0,6.85E1,8.25E1,8.05E1,4.85E1,6.35E1,2.5E0,2.015E3,2.5E0,2.0015E3,2.0155E3,2.0115E3,1.145E2,2.0125E3,1.9925E3,1.85E2,5E-1,1.9775E3,1.9715E3,1.9755E3,1.9725E3,1.9715E3,1.9765E3,1.9885E3,2.0115E3,2.0125E3,2.0075E3,2.0135E3,5.8883957E4,1.2950292E5,1.7072298E5,2.0165E3,1.39E2,1.9745E3,9.45E1,9.8E1,2.5E0,8.75E1,2.0105E3,2.0155E3,2.0045E3,2.0045E3,2.0085E3,1.095E2,1.9915E3,1.405E2,1.9925E3,1.987E3,3.9351223E4,5.4178965E4,6.719595E4,5.3527797E4,6.5079297E4,7.366848E4,9.988668E4,7.572978E4,8.0555445E4,1.03426125E5,4.0318332E4,1.3226639E5,9.056675E4,7.730427E4,9.151112E4,7.399122E4,5.1836793E4,6.3000883E4,6.61922E4,9.641536E4,1.1188151E5,1.4644411E5,1.0766362E5,8.9643836E4,2.1164147E5,1.01513445E5,2.041411E5,2.9405297E5,1.1134118E5,1.4776586E5,9.32379E4,1.0504786E5,1.11754125E5,1.8888086E5,1.2754219E4,1.7345461E5,2.6332894E5,1.5110184E5,1.2752646E5,2.1083306E5,1.1577372E5,1.3328956E5,1.15399445E5,8.168388E4,1.3408469E5,2.117256E5,1.5640575E5,2.4192955E5,2.23371E5,1.5195939E5,1.6454014E5,1.856172E5,1.7494678E5,1.5650566E5,1.8029069E5,1.6536523E5,6.3646266E4,2.2146289E5],"split_indices":[1,2,0,1,1,2,1,1,2,0,2,2,1,2,1,0,1,1,1,1,1,0,2,0,2,2,2,1,2,2,1,0,2,2,2,2,2,2,2,2,2,2,2,0,0,0,2,1,2,1,1,0,1,2,2,2,2,2,1,2,1,2,2,0,0,0,0,0,0,0,0,0,0,0,0,0,0,0,0,0,0,0,0,0,0,0,0,0,0,0,0,0,0,0,0,0,0,0,0,0,0,0,0,0,0,0,0,0,0,0,0,0,0,0,0,0,0,0,0,0,0],"split_type":[0,0,0,0,0,0,0,0,0,0,0,0,0,0,0,0,0,0,0,0,0,0,0,0,0,0,0,0,0,0,0,0,0,0,0,0,0,0,0,0,0,0,0,0,0,0,0,0,0,0,0,0,0,0,0,0,0,0,0,0,0,0,0,0,0,0,0,0,0,0,0,0,0,0,0,0,0,0,0,0,0,0,0,0,0,0,0,0,0,0,0,0,0,0,0,0,0,0,0,0,0,0,0,0,0,0,0,0,0,0,0,0,0,0,0,0,0,0,0,0,0],"sum_hessian":[8.7366E4,2.4614E4,6.2752E4,2.0231E4,4.383E3,3.3497E4,2.9255E4,1.5863E4,4.368E3,4.012E3,3.71E2,2.0964E4,1.2533E4,2.349E4,5.765E3,1.869E3,1.3994E4,4.34E2,3.934E3,7.36E2,3.276E3,4.4E1,3.27E2,4.61E2,2.0503E4,5.83E2,1.195E4,1.906E4,4.43E3,4.061E3,1.704E3,5.73E2,1.296E3,1.0393E4,3.601E3,3.69E2,6.5E1,5.01E2,3.433E3,6.77E2,5.9E1,3.2E2,2.956E3,5E0,3.9E1,2.18E2,1.09E2,9.9E1,3.62E2,1.8225E4,2.278E3,4.86E2,9.7E1,2.529E3,9.421E3,5.468E3,1.3592E4,1.341E3,3.089E3,2.051E3,2.01E3,1.643E3,6.1E1,4.3E1,5.3E2,1.044E3,2.52E2,1.173E3,9.22E3,2.2E2,3.381E3,7.3E1,2.96E2,2E0,6.3E1,5.9E1,4.42E2,3.283E3,1.5E2,4.3E1,6.34E2,4E1,1.9E1,1.04E2,2.16E2,8.99E2,2.057E3,1.01E2,8E0,8.6E1,1.3E1,2.45E2,1.17E2,5.415E3,1.281E4,2.243E3,3.5E1,5E0,4.81E2,7.9E1,1.8E1,1.893E3,6.36E2,7.21E3,2.211E3,5.209E3,2.59E2,1.3459E4,1.33E2,5.94E2,7.47E2,1.58E2,2.931E3,1.692E3,3.59E2,1.96E2,1.814E3,1.063E3,5.8E2,1E0,6E1],"tree_param":{"num_deleted":"0","num_feature":"3","num_nodes":"121","size_leaf_vector":"0"}},{"base_weights":[1.13934016E5,8.062893E4,1.26996195E5,7.855195E4,1.4095547E5,1.131591E5,1.4283527E5,7.5234625E4,1.011704E5,1.2897824E5,2.1091377E5,1.0380539E5,1.2879556E5,1.3625153E5,1.6718648E5,6.1715414E4,7.714406E4,9.55593E4,1.709717E5,1.2665431E5,3.1445653E5,1.4599225E5,1.0246338E5,1.4251028E5,1.15535875E5,1.28067445E5,1.7058436E5,2.026092E5,1.6385938E5,4.4456664E4,6.313493E4,7.477634E4,9.0898734E4,1.14087945E5,8.927329E4,1.8219702E5,1.3780538E5,1.434265E5,1.1344349E5,1.3912719E5,3.2530003E5,9.969808E4,1.131732E5,1.6594773E5,1.3466355E5,1.1322818E5,4.175037E5,1.4818352E5,1.1908297E5,2.5501555E5,1.6223497E5,2.638916E5,1.9437236E5,1.4280927E5,1.6965284E5,3.8243375E4,4.6741258E4,6.0354117E4,6.750916E4,7.706022E4,6.847152E4,1.1023238E5,7.577358E4,1.5143369E5,1.1015364E5,9.768585E4,8.032327E4,1.3362677E5,1.9073158E5,9.3575234E4,1.5558627E5,8.2133164E4,1.4988483E5,1.0084112E5,1.4377822E5,2.0001236E5,1.2885238E5,3.398591E5,2.5005E3,9.2236805E4,1.0543596E5,1.0522141E5,1.4289047E5,1.2305848E5,1.9918595E5,1.5239478E5,1.261183E5,2.1856238E5,1.1018068E5,1.4982134E5,4.7543494E5,2.1852536E5,1.4454977E5,1.1639523E5,1.4325736E5,2.4286627E5,3.8166622E5,1.5440097E5,2.4376406E5,2.9721528E5,2.1215467E5,2.0903672E5,1.8637445E5,1.1364165E5,1.575394E5,1.6909775E5,3.787402E5],"categories":[],"categories_nodes":[],"categories_segments":[],"categories_sizes":[],"default_left":[true,true,true,true,true,true,true,true,true,true,false,true,true,true,true,true,true,true,true,true,false,true,true,true,true,true,true,true,true,true,true,true,true,true,true,true,true,true,true,true,true,true,true,true,true,true,true,true,true,true,true,true,true,true,true,false,false,false,false,false,false,false,false,false,false,false,false,false,false,false,false,false,false,false,false,false,false,false,false,false,false,false,false,false,false,false,false,false,false,false,false,false,false,false,false,false,false,false,false,false,false,false,false,false,false,false,false],"id":2,"left_children":[1,3,5,7,9,11,13,15,17,19,-1,21,23,25,27,29,31,33,35,37,-1,39,41,43,45,47,49,51,53,55,57,59,61,63,65,67,69,71,73,75,77,79,81,83,85,87,89,91,93,95,97,99,101,103,105,-1,-1,-1,-1,-1,-1,-1,-1,-1,-1,-1,-1,-1,-1,-1,-1,-1,-1,-1,-1,-1,-1,-1,-1,-1,-1,-1,-1,-1,-1,-1,-1,-1,-1,-1,-1,-1,-1,-1,-1,-1,-1,-1,-1,-1,-1,-1,-1,-1,-1,-1,-1],"loss_changes":[3.799771E13,3.0731162E12,1.3737184E13,1.7780158E12,6.5820374E11,4.8860286E12,4.6675557E12,5.3109116E11,1.174705E12,2.6233065E11,0E0,1.1719724E12,2.2628773E12,6.4506047E12,7.0009645E11,6.0254323E10,5.8544095E11,3.1791566E11,5.8659963E10,1.3750187E11,0E0,7.4748055E11,5.905748E11,1.1099722E12,4.3972244E12,3.3448736E12,3.0822514E12,2.1623734E11,6.700652E11,1.0372055E9,2.4827134E10,2.1820447E11,7.712507E11,8.763893E10,1.5087016E11,4.2909827E10,3.3414447E10,1.0723682E11,1.3574131E11,3.6334102E11,1.0724232E11,6.821113E11,9.6870806E11,2.1708543E12,6.804923E11,2.008216E12,6.7311396E11,1.4355844E12,8.192818E11,5.181748E11,2.5395085E12,4.0388264E10,1.6282288E10,5.1270543E11,4.5347976E11,0E0,0E0,0E0,0E0,0E0,0E0,0E0,0E0,0E0,0E0,0E0,0E0,0E0,0E0,0E0,0E0,0E0,0E0,0E0,0E0,0E0,0E0,0E0,0E0,0E0,0E0,0E0,0E0,0E0,0E0,0E0,0E0,0E0,0E0,0E0,0E0,0E0,0E0,0E0,0E0,0E0,0E0,0E0,0E0,0E0,0E0,0E0,0E0,0E0,0E0,0E0,0E0],"parents":[2147483647,0,0,1,1,2,2,3,3,4,4,5,5,6,6,7,7,8,8,9,9,11,11,12,12,13,13,14,14,15,15,16,16,17,17,18,18,19,19,21,21,22,22,23,23,24,24,25,25,26,26,27,27,28,28,29,29,30,30,31,31,32,32,33,33,34,34,35,35,36,36,37,37,38,38,39,39,40,40,41,41,42,42,43,43,44,44,45,45,46,46,47,47,48,48,49,49,50,50,51,51,52,52,53,53,54,54],"right_children":[2,4,6,8,10,12,14,16,18,20,-1,22,24,26,28,30,32,34,36,38,-1,40,42,44,46,48,50,52,54,56,58,60,62,64,66,68,70,72,74,76,78,80,82,84,86,88,90,92,94,96,98,100,102,104,106,-1,-1,-1,-1,-1,-1,-1,-1,-1,-1,-1,-1,-1,-1,-1,-1,-1,-1,-1,-1,-1,-1,-1,-1,-1,-1,-1,-1,-1,-1,-1,-1,-1,-1,-1,-1,-1,-1,-1,-1,-1,-1,-1,-1,-1,-1,-1,-1,-1,-1,-1,-1],"split_conditions":[8.45E1,2.0155E3,3.5E0,2.5E0,6.85E1,2.0045E3,1.365E2,5.95E1,2.0025E3,2.0185E3,1.0545688E5,1.9765E3,2.0135E3,2.0055E3,1.9845E3,4.35E1,1.9985E3,8.305E1,8.25E1,6.75E1,1.5722827E5,1.25E2,1.9995E3,9.15E1,9.65E1,1.9925E3,1.095E2,1.385E2,1.425E2,1.9695E3,5.75E1,1.9845E3,2.0135E3,8.05E1,1.9865E3,2.0065E3,8.35E1,1.5E0,2.0165E3,2.5E0,1.9735E3,1.015E2,9.45E1,2.0075E3,2.0115E3,8.85E1,2.015E3,1.9755E3,4.5E0,2.0155E3,1.165E2,1.9835E3,4.5E0,1.9955E3,2.006E3,1.9121688E4,2.3370629E4,3.0177059E4,3.375458E4,3.853011E4,3.423576E4,5.511619E4,3.788679E4,7.571684E4,5.507682E4,4.8842926E4,4.0161637E4,6.681338E4,9.536579E4,4.6787617E4,7.779313E4,4.1066582E4,7.4942414E4,5.042056E4,7.188911E4,1.0000618E5,6.442619E4,1.6992955E5,1.25025E3,4.6118402E4,5.271798E4,5.2610703E4,7.1445234E4,6.152924E4,9.959298E4,7.619739E4,6.305915E4,1.0928119E5,5.509034E4,7.491067E4,2.3771747E5,1.0926268E5,7.227488E4,5.8197613E4,7.162868E4,1.2143313E5,1.9083311E5,7.7200484E4,1.2188203E5,1.4860764E5,1.06077336E5,1.0451836E5,9.318723E4,5.6820824E4,7.87697E4,8.4548875E4,1.893701E5],"split_indices":[1,2,0,0,1,2,1,1,2,2,0,2,2,2,2,1,2,1,1,1,0,1,2,1,1,2,1,1,1,2,1,2,2,1,2,2,1,0,2,0,2,1,1,2,2,1,2,2,0,2,1,2,0,2,2,0,0,0,0,0,0,0,0,0,0,0,0,0,0,0,0,0,0,0,0,0,0,0,0,0,0,0,0,0,0,0,0,0,0,0,0,0,0,0,0,0,0,0,0,0,0,0,0,0,0,0,0],"split_type":[0,0,0,0,0,0,0,0,0,0,0,0,0,0,0,0,0,0,0,0,0,0,0,0,0,0,0,0,0,0,0,0,0,0,0,0,0,0,0,0,0,0,0,0,0,0,0,0,0,0,0,0,0,0,0,0,0,0,0,0,0,0,0,0,0,0,0,0,0,0,0,0,0,0,0,0,0,0,0,0,0,0,0,0,0,0,0,0,0,0,0,0,0,0,0,0,0,0,0,0,0,0,0,0,0,0,0],"sum_hessian":[8.7366E4,2.4614E4,6.2752E4,2.3797E4,8.17E2,3.3497E4,2.9255E4,2.0757E4,3.04E3,7E2,1.17E2,2.0964E4,1.2533E4,2.3034E4,6.221E3,2.573E3,1.8184E4,2.816E3,2.24E2,6.93E2,7E0,6.43E2,2.0321E4,6.156E3,6.377E3,1.8604E4,4.43E3,5.29E2,5.692E3,1.98E2,2.375E3,1.5519E4,2.665E3,7.09E2,2.107E3,1.64E2,6E1,3.01E2,3.92E2,6.21E2,2.2E1,1.6159E4,4.162E3,1.539E3,4.617E3,6.33E3,4.7E1,5.739E3,1.2865E4,3.96E2,4.034E3,5.9E1,4.7E2,1.234E3,4.458E3,5.8E1,1.4E2,1.461E3,9.14E2,1.1384E4,4.135E3,1.167E3,1.498E3,6.4E1,6.45E2,1.081E3,1.026E3,2.7E1,1.37E2,1.9E1,4.1E1,3E1,2.71E2,2.8E2,1.12E2,8.7E1,5.34E2,2.1E1,1E0,7.032E3,9.127E3,3.287E3,8.75E2,6.74E2,8.65E2,1.496E3,3.121E3,1.76E2,6.154E3,9E0,3.8E1,2.79E2,5.46E3,1.1583E4,1.282E3,3.64E2,3.2E1,3.683E3,3.51E2,3.3E1,2.6E1,1.57E2,3.13E2,4.17E2,8.17E2,4.448E3,1E1],"tree_param":{"num_deleted":"0","num_feature":"3","num_nodes":"107","size_leaf_vector":"0"}},{"base_weights":[5.7016227E4,3.886688E4,6.3021273E4,3.860783E4,1.5503983E5,5.7376035E4,7.409342E4,3.7677934E4,6.605415E4,7.346695E4,1.5884542E5,5.539371E4,8.575677E4,7.159902E4,9.705513E4,3.5319406E4,4.370391E4,6.469706E4,1.7688178E5,8.530396E4,1.8977969E4,5.049878E4,6.1513168E4,7.312497E4,1.395995E5,6.4818215E4,8.2391375E4,1.24113336E5,7.702498E4,2.7788203E4,3.6800836E4,4.1839965E4,6.445205E4,9.114614E4,5.9142023E4,4.3796344E4,1.8963738E5,6.113311E4,4.729351E4,6.734638E4,4.0442496E4,1.2706789E5,6.826307E4,1.9600628E5,1.1728759E5,9.879869E4,6.1650207E4,8.431317E4,3.5603344E4,1.3688886E5,9.1457E4,7.1917586E4,1.2197485E5,2.653647E4,4.0226527E4,4.075945E4,3.4088035E4,6.2270926E4,3.9710414E4,7.6376805E4,5.919467E3,4.2391316E4,1.0692673E5,5.7825797E4,1.3666292E5,5.0245832E4,6.447717E4,3.8384965E4,5.0984613E4,5.8976227E4,7.9378336E4,-1.3473813E4,4.2473637E4,1.0290367E5,1.5870534E5,6.735324E4,3.7638816E5,1.2394463E5,2.0932055E5,7.253089E4,1.2265573E5,7.7693625E4,1.13874875E5,5.7795953E4,6.947316E4,8.328719E4,1.2802652E5,5.0892652E4,-3.4685044E3,2.0571736E5,1.2364448E5,-1.5499159E4,1.3771403E5,1.8139059E4,7.2677805E4,1.10791836E5,2.2881623E5],"categories":[],"categories_nodes":[],"categories_segments":[],"categories_sizes":[],"default_left":[true,true,true,true,true,true,true,true,true,true,false,true,true,true,true,true,true,true,true,false,false,true,true,true,true,true,true,true,true,true,true,true,true,true,true,false,false,true,true,true,true,true,true,true,true,true,true,true,true,true,true,true,true,false,false,false,false,false,false,false,false,false,false,false,false,false,false,false,false,false,false,false,false,false,false,false,false,false,false,false,false,false,false,false,false,false,false,false,false,false,false,false,false,false,false,false,false],"id":3,"left_children":[1,3,5,7,9,11,13,15,17,19,-1,21,23,25,27,29,31,33,35,-1,-1,37,39,41,43,45,47,49,51,53,55,57,59,61,63,-1,-1,65,67,69,71,73,75,77,79,81,83,85,87,89,91,93,95,-1,-1,-1,-1,-1,-1,-1,-1,-1,-1,-1,-1,-1,-1,-1,-1,-1,-1,-1,-1,-1,-1,-1,-1,-1,-1,-1,-1,-1,-1,-1,-1,-1,-1,-1,-1,-1,-1,-1,-1,-1,-1,-1,-1],"loss_changes":[9.519459E12,6.477578E11,4.0988752E12,5.50731E11,3.2309248E9,2.441538E12,1.2625107E12,2.964618E11,9.519209E10,9.610486E8,0E0,1.2144188E12,1.919324E12,1.457982E12,1.1659934E12,1.6716818E11,2.2524461E11,9.775114E10,5.2752384E9,0E0,0E0,7.6703754E11,2.2168994E12,5.9453525E11,6.5410695E11,1.3163907E12,6.9043696E11,3.717244E11,2.779691E11,3.7575983E10,1.3385702E11,2.329527E11,3.3737343E11,8.779288E10,5.158378E10,0E0,0E0,1.8710161E11,5.689154E11,1.4195538E12,4.296388E11,1.2815827E11,5.667312E11,1.1893211E11,8.4324385E10,3.239733E11,3.348942E11,3.2153954E11,1.8297527E11,5.762135E11,1.2983728E12,4.4634735E10,1.2519499E11,0E0,0E0,0E0,0E0,0E0,0E0,0E0,0E0,0E0,0E0,0E0,0E0,0E0,0E0,0E0,0E0,0E0,0E0,0E0,0E0,0E0,0E0,0E0,0E0,0E0,0E0,0E0,0E0,0E0,0E0,0E0,0E0,0E0,0E0,0E0,0E0,0E0,0E0,0E0,0E0,0E0,0E0,0E0,0E0],"parents":[2147483647,0,0,1,1,2,2,3,3,4,4,5,5,6,6,7,7,8,8,9,9,11,11,12,12,13,13,14,14,15,15,16,16,17,17,18,18,21,21,22,22,23,23,24,24,25,25,26,26,27,27,28,28,29,29,30,30,31,31,32,32,33,33,34,34,37,37,38,38,39,39,40,40,41,41,42,42,43,43,44,44,45,45,46,46,47,47,48,48,49,49,50,50,51,51,52,52],"right_children":[2,4,6,8,10,12,14,16,18,20,-1,22,24,26,28,30,32,34,36,-1,-1,38,40,42,44,46,48,50,52,54,56,58,60,62,64,-1,-1,66,68,70,72,74,76,78,80,82,84,86,88,90,92,94,96,-1,-1,-1,-1,-1,-1,-1,-1,-1,-1,-1,-1,-1,-1,-1,-1,-1,-1,-1,-1,-1,-1,-1,-1,-1,-1,-1,-1,-1,-1,-1,-1,-1,-1,-1,-1,-1,-1,-1,-1,-1,-1,-1,-1],"split_conditions":[2.5E0,9.65E1,1.125E2,2.0155E3,1.015E2,2.0155E3,2.0045E3,6.85E1,2.0185E3,1.005E2,7.942271E4,2.0015E3,9.35E1,1.305E2,2.0135E3,1.9735E3,2.0105E3,6.6E1,1.5E0,4.265198E4,9.488984E3,1.9845E3,2.0145E3,8.75E1,1.095E2,1.9785E3,2.0005E3,1.175E2,1.135E2,6.75E1,6.55E1,1.9755E3,2.0135E3,1.5E0,6.85E1,2.1898172E4,9.481869E4,1.9775E3,9.45E1,2.0105E3,9.1E1,8.5E1,2.0185E3,9.45E1,1.11E2,1.175E2,1.225E2,1.765E2,1.365E2,2.0055E3,1.185E2,2.0145E3,1.165E2,1.3268235E4,2.0113264E4,2.0379725E4,1.7044018E4,3.1135463E4,1.9855207E4,3.8188402E4,2.9597334E3,2.1195658E4,5.3463363E4,2.8912898E4,6.833146E4,2.5122916E4,3.2238586E4,1.9192482E4,2.5492307E4,2.9488113E4,3.9689168E4,-6.7369067E3,2.1236818E4,5.1451836E4,7.935267E4,3.367662E4,1.8819408E5,6.1972316E4,1.0466027E5,3.6265445E4,6.1327863E4,3.8846812E4,5.6937438E4,2.8897977E4,3.473658E4,4.1643594E4,6.401326E4,2.5446326E4,-1.7342522E3,1.0285868E5,6.182224E4,-7.7495796E3,6.8857016E4,9.069529E3,3.6338902E4,5.5395918E4,1.1440812E5],"split_indices":[0,1,1,2,1,2,2,1,2,1,0,2,1,1,2,2,2,1,0,0,0,2,2,1,1,2,2,1,1,1,1,2,2,0,1,0,0,2,1,2,1,1,2,1,1,1,1,1,1,2,1,2,1,0,0,0,0,0,0,0,0,0,0,0,0,0,0,0,0,0,0,0,0,0,0,0,0,0,0,0,0,0,0,0,0,0,0,0,0,0,0,0,0,0,0,0,0],"split_type":[0,0,0,0,0,0,0,0,0,0,0,0,0,0,0,0,0,0,0,0,0,0,0,0,0,0,0,0,0,0,0,0,0,0,0,0,0,0,0,0,0,0,0,0,0,0,0,0,0,0,0,0,0,0,0,0,0,0,0,0,0,0,0,0,0,0,0,0,0,0,0,0,0,0,0,0,0,0,0,0,0,0,0,0,0,0,0,0,0,0,0,0,0,0,0,0,0],"sum_hessian":[8.7366E4,2.1722E4,6.5644E4,2.1675E4,4.7E1,4.3481E4,2.2163E4,2.0967E4,7.08E2,3E0,4.4E1,4.0645E4,2.836E3,1.9995E4,2.168E3,1.5074E4,5.893E3,7.01E2,7E0,2E0,1E0,2.2587E4,1.8058E4,2.299E3,5.37E2,1.2284E4,7.711E3,9.2E2,1.248E3,2.481E3,1.2593E4,5.41E3,4.83E2,1.19E2,5.82E2,1E0,6E0,5.227E3,1.736E4,1.4141E4,3.917E3,1.88E2,2.111E3,1.5E2,3.87E2,1.045E3,1.1239E4,7.406E3,3.05E2,6.59E2,2.61E2,1.123E3,1.25E2,2.257E3,2.24E2,5.115E3,7.478E3,5.08E2,4.902E3,4.01E2,8.2E1,3E1,8.9E1,5.74E2,8E0,1.232E3,3.995E3,5.089E3,1.2271E4,8.343E3,5.798E3,1.42E2,3.775E3,1.09E2,7.9E1,2.106E3,5E0,2.5E1,1.25E2,4.3E1,3.44E2,4.38E2,6.07E2,7.535E3,3.704E3,7.239E3,1.67E2,2.19E2,8.6E1,1.04E2,5.55E2,7.9E1,1.82E2,1.6E1,1.107E3,1.15E2,1E1],"tree_param":{"num_deleted":"0","num_feature":"3","num_nodes":"97","size_leaf_vector":"0"}},{"base_weights":[2.8532326E4,2.4300559E4,3.554151E4,2.0633006E4,3.0138105E4,4.235349E4,3.2146936E4,1.6926047E4,2.3457133E4,2.8193045E4,4.5526535E4,3.8069535E4,7.98988E4,2.8813334E4,4.5360973E4,1.7796254E4,7.904253E3,2.6864969E4,1.9243816E4,2.7063057E4,4.9163676E4,5.1468844E4,-2.4517549E4,3.702827E4,1.0775792E5,1.03505586E5,6.98514E4,1.44847295E4,3.0741977E4,8.210861E4,3.6127445E4,6.9669126E3,1.818235E4,-2.0952846E4,9.983082E3,1.575574E5,2.6750256E4,1.2493788E4,2.1855154E4,3.0265562E4,2.3260275E4,4.7398812E4,1.6414997E5,4.237332E4,9.655518E4,-3.3926332E4,1.0257762E5,4.0777875E4,2.9119941E4,9.294254E4,2.2897402E5,8.9796695E4,1.5445692E5,2.0275348E4,8.556908E4,-3.0992104E3,1.811334E4,2.6918664E4,3.933295E4,1.5114784E5,6.25635E4,-2.9899291E4,3.865707E4,-2.5104556E3,7.9597393E3,8.1112314E3,1.8550324E4,-2.2363586E4,6.37385E3,1.5167712E4,6.601399E3,-8.5465625E3,1.7938872E5,2.581457E4,3.5400926E4,2.2800967E4,-1.1377006E4,1.319734E4,2.60507E4,3.3635832E4,2.05347E4,2.0837074E4,3.0260193E4,3.5496715E4,5.7407277E4,1.08971234E5,2.1955973E5,3.5550996E4,1.1202835E5,7.049738E3,1.2636451E5,-2.6095887E4,-5.6290688E4,3.688014E4,6.579549E4,1.8910805E4,4.448003E4,5.5667957E4,1.15543305E5,9.841677E4,5.276068E4,6.486538E3,3.0812244E4,1.761614E5,6.636267E4,1.7694004E4,-7.615083E3,2.2932037E4,2.835642E3,2.9080344E4,5.670255E3,4.694937E4,2.8909455E4,-4.4202144E3,1.05329516E5,-7.7547805E4,1.0300942E5,5.502627E4,3.1213998E4],"categories":[],"categories_nodes":[],"categories_segments":[],"categories_sizes":[],"default_left":[true,true,true,true,true,true,true,true,true,true,true,true,true,true,true,true,true,true,true,true,true,true,true,true,true,true,true,true,true,true,true,true,true,true,true,true,true,true,true,true,true,true,true,true,true,true,false,true,true,true,false,true,false,true,true,true,true,true,true,false,true,true,true,false,false,false,false,false,false,false,false,false,false,false,false,false,false,false,false,false,false,false,false,false,false,false,false,false,false,false,false,false,false,false,false,false,false,false,false,false,false,false,false,false,false,false,false,false,false,false,false,false,false,false,false,false,false,false,false],"id":4,"left_children":[1,3,5,7,9,11,13,15,17,19,21,23,25,27,29,31,33,35,37,39,41,43,45,47,49,51,53,55,57,59,61,63,65,67,69,71,73,75,77,79,81,83,85,87,89,91,-1,93,95,97,-1,99,-1,101,103,105,107,109,111,-1,113,115,117,-1,-1,-1,-1,-1,-1,-1,-1,-1,-1,-1,-1,-1,-1,-1,-1,-1,-1,-1,-1,-1,-1,-1,-1,-1,-1,-1,-1,-1,-1,-1,-1,-1,-1,-1,-1,-1,-1,-1,-1,-1,-1,-1,-1,-1,-1,-1,-1,-1,-1,-1,-1,-1,-1,-1,-1],"loss_changes":[2.5905448E12,1.165769E12,7.591313E11,3.49914E11,6.2784537E11,1.7557692E12,9.6577415E11,1.13484235E11,2.7214742E11,4.4091782E11,9.823002E11,7.083718E11,2.5818196E11,4.8410237E11,1.4971233E12,5.5060464E10,7.669511E10,1.5314085E11,1.4946481E11,2.1498954E11,1.8561683E11,8.8702085E11,2.2470512E11,2.8567614E11,2.3732276E11,2.1802779E11,6.1229105E11,1.3289872E11,5.0651044E11,1.1874431E12,5.9158194E11,4.310661E9,4.7077917E10,3.4579128E9,2.076387E10,3.4169553E10,8.39794E10,5.8386756E11,2.2210596E11,3.145078E11,1.3677992E11,1.0993664E11,1.8878464E10,8.561458E11,9.702964E11,2.8827288E10,0E0,6.3725214E11,4.876324E11,1.0308446E11,0E0,7.909029E10,0E0,2.755077E10,1.0288012E12,3.3656865E10,1.2700071E11,4.9117292E11,3.7629932E11,0E0,1.9856514E12,8.375984E11,4.1313737E11,0E0,0E0,0E0,0E0,0E0,0E0,0E0,0E0,0E0,0E0,0E0,0E0,0E0,0E0,0E0,0E0,0E0,0E0,0E0,0E0,0E0,0E0,0E0,0E0,0E0,0E0,0E0,0E0,0E0,0E0,0E0,0E0,0E0,0E0,0E0,0E0,0E0,0E0,0E0,0E0,0E0,0E0,0E0,0E0,0E0,0E0,0E0,0E0,0E0,0E0,0E0,0E0,0E0,0E0,0E0,0E0],"parents":[2147483647,0,0,1,1,2,2,3,3,4,4,5,5,6,6,7,7,8,8,9,9,10,10,11,11,12,12,13,13,14,14,15,15,16,16,17,17,18,18,19,19,20,20,21,21,22,22,23,23,24,24,25,25,26,26,27,27,28,28,29,29,30,30,31,31,32,32,33,33,34,34,35,35,36,36,37,37,38,38,39,39,40,40,41,41,42,42,43,43,44,44,45,45,47,47,48,48,49,49,51,51,53,53,54,54,55,55,56,56,57,57,58,58,60,60,61,61,62,62],"right_children":[2,4,6,8,10,12,14,16,18,20,22,24,26,28,30,32,34,36,38,40,42,44,46,48,50,52,54,56,58,60,62,64,66,68,70,72,74,76,78,80,82,84,86,88,90,92,-1,94,96,98,-1,100,-1,102,104,106,108,110,112,-1,114,116,118,-1,-1,-1,-1,-1,-1,-1,-1,-1,-1,-1,-1,-1,-1,-1,-1,-1,-1,-1,-1,-1,-1,-1,-1,-1,-1,-1,-1,-1,-1,-1,-1,-1,-1,-1,-1,-1,-1,-1,-1,-1,-1,-1,-1,-1,-1,-1,-1,-1,-1,-1,-1,-1,-1,-1,-1],"split_conditions":[1.045E2,1.9995E3,1.9925E3,7.35E1,9.45E1,1.9915E3,2.0055E3,1.9865E3,1.9865E3,2.0165E3,1.015E2,1.575E2,1.215E2,1.9945E3,1.105E2,4.75E1,6.15E1,1.969E3,9.75E1,2.0135E3,2.0185E3,9.95E1,3.5E0,1.9875E3,1.9895E3,1.125E2,1.245E2,1.095E2,1.235E2,2.007E3,2.0085E3,5E-1,1.9685E3,1.9965E3,6.75E1,1.9675E3,1.9855E3,8.85E1,1.9915E3,9.25E1,2.0155E3,9.25E1,8.8E1,2.0145E3,2.0005E3,2.0005E3,5.128881E4,1.9865E3,1.225E2,1.9835E3,1.1448701E5,1.085E2,7.722846E4,1.225E2,1.415E2,1.055E2,1.465E2,1.215E2,1.9985E3,7.557392E4,2.0085E3,1.145E2,2.0145E3,-1.2552278E3,3.9798696E3,4.0556157E3,9.275162E3,-1.1181793E4,3.186925E3,7.583856E3,3.3006995E3,-4.2732812E3,8.969436E4,1.2907285E4,1.7700463E4,1.1400483E4,-5.688503E3,6.59867E3,1.302535E4,1.6817916E4,1.026735E4,1.0418537E4,1.5130097E4,1.7748357E4,2.8703639E4,5.4485617E4,1.0977987E5,1.7775498E4,5.6014176E4,3.524869E3,6.3182254E4,-1.3047943E4,-2.8145344E4,1.844007E4,3.2897746E4,9.455402E3,2.2240016E4,2.7833979E4,5.7771652E4,4.9208387E4,2.638034E4,3.243269E3,1.5406122E4,8.80807E4,3.3181336E4,8.847002E3,-3.8075415E3,1.1466019E4,1.417821E3,1.4540172E4,2.8351274E3,2.3474686E4,1.4454728E4,-2.2101072E3,5.2664758E4,-3.8773902E4,5.150471E4,2.7513135E4,1.5606999E4],"split_indices":[1,2,2,1,1,2,2,2,2,2,1,1,1,2,1,1,1,2,1,2,2,1,0,2,2,1,1,1,1,2,2,0,2,2,1,2,2,1,2,1,2,1,1,2,2,2,0,2,1,2,0,1,0,1,1,1,1,1,2,0,2,1,2,0,0,0,0,0,0,0,0,0,0,0,0,0,0,0,0,0,0,0,0,0,0,0,0,0,0,0,0,0,0,0,0,0,0,0,0,0,0,0,0,0,0,0,0,0,0,0,0,0,0,0,0,0,0,0,0],"split_type":[0,0,0,0,0,0,0,0,0,0,0,0,0,0,0,0,0,0,0,0,0,0,0,0,0,0,0,0,0,0,0,0,0,0,0,0,0,0,0,0,0,0,0,0,0,0,0,0,0,0,0,0,0,0,0,0,0,0,0,0,0,0,0,0,0,0,0,0,0,0,0,0,0,0,0,0,0,0,0,0,0,0,0,0,0,0,0,0,0,0,0,0,0,0,0,0,0,0,0,0,0,0,0,0,0,0,0,0,0,0,0,0,0,0,0,0,0,0,0],"sum_hessian":[8.7366E4,5.4479E4,3.2887E4,3.3461E4,2.1018E4,1.0934E4,2.1953E4,1.4472E4,1.8989E4,1.8662E4,2.356E3,9.816E3,1.118E3,1.7533E4,4.42E3,1.3198E4,1.274E3,1.0495E4,8.494E3,1.771E4,9.52E2,2.172E3,1.84E2,9.673E3,1.43E2,3.31E2,7.87E2,2.081E3,1.5452E4,8.86E2,3.534E3,4.55E2,1.2743E4,8.5E1,1.189E3,8E0,1.0487E4,2.371E3,6.123E3,9.61E3,8.1E3,9.39E2,1.3E1,1.809E3,3.63E2,1.72E2,1.2E1,6.559E3,3.114E3,1.29E2,1.4E1,2.63E2,6.8E1,1.9E2,5.97E2,3.56E2,1.725E3,1.0696E4,4.756E3,1.94E2,6.92E2,1.3E2,3.404E3,4.3E1,4.12E2,4.5E2,1.2293E4,8.1E1,4E0,4.68E2,7.21E2,1E0,7E0,9.467E3,1.02E3,1.656E3,7.15E2,2E3,4.123E3,7.136E3,2.474E3,6.02E3,2.08E3,4.31E2,5.08E2,8E0,5E0,1.649E3,1.6E2,9.1E1,2.72E2,1.29E2,4.3E1,5.677E3,8.82E2,1.872E3,1.242E3,5E1,7.9E1,2.12E2,5.1E1,8.3E1,1.07E2,1.03E2,4.94E2,6.3E1,2.93E2,1.311E3,4.14E2,9.708E3,9.88E2,2.746E3,2.01E3,2.7E2,4.22E2,9.6E1,3.4E1,1.062E3,2.342E3],"tree_param":{"num_deleted":"0","num_feature":"3","num_nodes":"119","size_leaf_vector":"0"}},{"base_weights":[1.428225E4,9.34094E3,1.5917192E4,9.22734E3,6.044678E4,1.4314045E4,1.9061578E4,3.7925376E3,9.969183E3,5.1685773E4,1.254543E5,1.4966027E4,-1.4866753E3,2.598979E4,1.6301853E4,8.6202295E3,-1.8148933E3,1.465862E4,8.597392E3,5.6530887E4,-7.832706E4,1.400094E5,3.3616938E4,1.3201965E4,1.9754658E4,-1.33432295E4,4.594385E4,1.9544643E4,4.130078E4,7.138048E3,1.958912E4,4.1023633E3,6.2092375E4,-1.8706574E4,3.1009915E3,1.2734331E4,4.2238152E4,1.5921955E5,8.566187E3,7.133299E4,3.2009469E4,1.3842194E4,-4.2999766E4,8.05169E4,1.4826564E4,-2.568802E4,-8.436758E3,5.9017906E4,2.8755875E4,1.2622994E4,2.8112758E4,4.313231E4,-6.868236E4,6.81243E3,1.7638111E5,8.2458695E4,1.9186158E4,1.0517061E4,-1.2280484E4,5.1832114E3,6.907925E4,-1.05405304E2,-2.4547012E4,3.3750415E2,4.9083223E4,1.3212319E4,-8.388261E4,7.894533E4,3.0791838E3,-2.8796624E3,8.915702E3,3.183835E4,7.706663E4,1.7342621E4,1.4067294E5,1.3122777E4,2.461468E4,-1.4432792E4,-1.16647445E5,-4.714277E4,1.0034249E5,3.841111E4,1.2527771E4,-1.6354865E4,-8.139489E4,6.8557164E4,-1.009665E4,2.578445E4,2.3723494E5,1.6753768E4,-1.00316455E4,3.057752E4,-3.0961635E4,3.90908E4,9.596185E4,6.8742373E3,-9.990434E4,1.4784245E4,-6.5668634E2,1.2017417E3,1.01398625E5,1.8438633E4,4.8998195E4],"categories":[],"categories_nodes":[],"categories_segments":[],"categories_sizes":[],"default_left":[true,true,true,true,true,true,true,true,true,true,true,true,true,true,true,true,true,true,true,true,false,false,false,true,true,true,true,true,true,true,true,true,true,true,true,true,true,false,true,true,true,true,true,true,true,true,true,false,true,true,true,true,true,true,false,true,true,false,false,false,false,false,false,false,false,false,false,false,false,false,false,false,false,false,false,false,false,false,false,false,false,false,false,false,false,false,false,false,false,false,false,false,false,false,false,false,false,false,false,false,false,false,false],"id":5,"left_children":[1,3,5,7,9,11,13,15,17,19,21,23,25,27,29,31,33,35,37,39,-1,-1,-1,41,43,45,47,49,51,53,55,57,59,61,63,65,67,-1,69,71,73,75,77,79,81,83,85,-1,87,89,91,93,95,97,-1,99,101,-1,-1,-1,-1,-1,-1,-1,-1,-1,-1,-1,-1,-1,-1,-1,-1,-1,-1,-1,-1,-1,-1,-1,-1,-1,-1,-1,-1,-1,-1,-1,-1,-1,-1,-1,-1,-1,-1,-1,-1,-1,-1,-1,-1,-1,-1],"loss_changes":[7.056686E11,1.2555924E11,3.3063803E11,8.73549E10,2.0853293E10,4.4796425E11,4.2335103E11,7.053546E10,1.22562806E11,3.2144695E10,1.9768279E9,3.5249665E11,9.7012626E11,6.220711E11,4.7741403E11,3.3795732E11,1.002013E11,2.2846341E11,6.8001595E10,1.3324313E10,0E0,0E0,0E0,1.09876504E12,3.364535E12,8.336902E10,7.583007E10,2.6319874E11,3.794482E11,2.2953794E11,2.9398978E11,1.3590672E11,4.298218E10,2.9547217E10,1.1879511E11,1.874521E11,4.0367053E11,0E0,5.9057177E10,3.433988E9,2.6247875E10,2.3354619E11,7.22055E11,2.1383039E12,5.632565E11,2.0247772E11,1.27088E11,0E0,8.742455E10,2.3037785E11,2.899715E11,3.8889534E11,7.381659E10,2.48897E11,0E0,1.1376424E11,2.5747102E11,0E0,0E0,0E0,0E0,0E0,0E0,0E0,0E0,0E0,0E0,0E0,0E0,0E0,0E0,0E0,0E0,0E0,0E0,0E0,0E0,0E0,0E0,0E0,0E0,0E0,0E0,0E0,0E0,0E0,0E0,0E0,0E0,0E0,0E0,0E0,0E0,0E0,0E0,0E0,0E0,0E0,0E0,0E0,0E0,0E0,0E0],"parents":[2147483647,0,0,1,1,2,2,3,3,4,4,5,5,6,6,7,7,8,8,9,9,10,10,11,11,12,12,13,13,14,14,15,15,16,16,17,17,18,18,19,19,23,23,24,24,25,25,26,26,27,27,28,28,29,29,30,30,31,31,32,32,33,33,34,34,35,35,36,36,38,38,39,39,40,40,41,41,42,42,43,43,44,44,45,45,46,46,48,48,49,49,50,50,51,51,52,52,53,53,55,55,56,56],"right_children":[2,4,6,8,10,12,14,16,18,20,22,24,26,28,30,32,34,36,38,40,-1,-1,-1,42,44,46,48,50,52,54,56,58,60,62,64,66,68,-1,70,72,74,76,78,80,82,84,86,-1,88,90,92,94,96,98,-1,100,102,-1,-1,-1,-1,-1,-1,-1,-1,-1,-1,-1,-1,-1,-1,-1,-1,-1,-1,-1,-1,-1,-1,-1,-1,-1,-1,-1,-1,-1,-1,-1,-1,-1,-1,-1,-1,-1,-1,-1,-1,-1,-1,-1,-1,-1,-1],"split_conditions":[2.5E0,9.65E1,1.125E2,5.95E1,2.185E2,1.115E2,1.205E2,1.9775E3,6.55E1,2.125E2,2.45E2,2.0105E3,2.0155E3,1.185E2,1.225E2,1.9765E3,1.9785E3,2.0125E3,1.5E0,1.09E2,-3.916353E4,7.00047E4,1.6808469E4,2.0095E3,2.0115E3,2.009E3,2.0165E3,2.0045E3,2.0115E3,2.0125E3,1.9755E3,1.9745E3,1.5E0,4.6E1,1.5E0,2.0095E3,6.35E1,7.960977E4,6.65E1,1.025E2,1.975E2,2.0055E3,9.5E1,9.25E1,9.15E1,2.0045E3,2.0105E3,2.9508953E4,2.0175E3,2.0015E3,1.175E2,2.0005E3,1.195E2,1.9885E3,8.8190555E4,1.9725E3,2.0025E3,5.2585303E3,-6.140242E3,2.5916057E3,3.4539625E4,-5.2702652E1,-1.2273506E4,1.6875208E2,2.4541611E4,6.6061597E3,-4.1941305E4,3.9472664E4,1.5395919E3,-1.4398312E3,4.457851E3,1.5919175E4,3.8533316E4,8.671311E3,7.033647E4,6.5613887E3,1.230734E4,-7.216396E3,-5.8323723E4,-2.3571385E4,5.0171246E4,1.9205555E4,6.2638857E3,-8.1774326E3,-4.0697445E4,3.4278582E4,-5.048325E3,1.2892225E4,1.1861747E5,8.376884E3,-5.0158228E3,1.528876E4,-1.5480817E4,1.95454E4,4.7980926E4,3.4371187E3,-4.995217E4,7.3921226E3,-3.2834317E2,6.0087085E2,5.0699312E4,9.219316E3,2.4499098E4],"split_indices":[0,1,1,1,1,1,1,2,1,1,1,2,2,1,1,2,2,2,0,1,0,0,0,2,2,2,2,2,2,2,2,2,0,1,0,2,1,0,1,1,1,2,1,1,1,2,2,0,2,2,1,2,1,2,0,2,2,0,0,0,0,0,0,0,0,0,0,0,0,0,0,0,0,0,0,0,0,0,0,0,0,0,0,0,0,0,0,0,0,0,0,0,0,0,0,0,0,0,0,0,0,0,0],"split_type":[0,0,0,0,0,0,0,0,0,0,0,0,0,0,0,0,0,0,0,0,0,0,0,0,0,0,0,0,0,0,0,0,0,0,0,0,0,0,0,0,0,0,0,0,0,0,0,0,0,0,0,0,0,0,0,0,0,0,0,0,0,0,0,0,0,0,0,0,0,0,0,0,0,0,0,0,0,0,0,0,0,0,0,0,0,0,0,0,0,0,0,0,0,0,0,0,0,0,0,0,0,0,0],"sum_hessian":[8.7366E4,2.1722E4,6.5644E4,2.1675E4,4.7E1,4.3481E4,2.2163E4,2.604E3,1.9071E4,4.3E1,4E0,4.1758E4,1.723E3,6.311E3,1.5852E4,1.399E3,1.205E3,4.314E3,1.4757E4,4.2E1,1E0,3E0,1E0,3.0519E4,1.1239E4,1.379E3,3.44E2,4.443E3,1.868E3,4.186E3,1.1666E4,1.291E3,1.08E2,2.71E2,9.34E2,4.034E3,2.8E2,2E0,1.4755E4,2.5E1,1.7E1,3.0176E4,3.43E2,8.42E2,1.0397E4,3.91E2,9.88E2,1.94E2,1.5E2,2.459E3,1.984E3,1.838E3,3E1,4.179E3,7E0,7.3E1,1.1593E4,9.28E2,3.63E2,1.2E1,9.6E1,6.5E1,2.06E2,8.82E2,5.2E1,4.015E3,1.9E1,1.44E2,1.36E2,4.37E2,1.4318E4,4E0,2.1E1,1.6E1,1E0,2.8289E4,1.887E3,2.48E2,9.5E1,1.13E2,7.29E2,9.22E2,9.475E3,3.36E2,5.5E1,2E1,9.68E2,1.49E2,1E0,2.08E3,3.79E2,1.905E3,7.9E1,1.709E3,1.29E2,9E0,2.1E1,2.021E3,2.158E3,1.4E1,5.9E1,1.1311E4,2.82E2],"tree_param":{"num_deleted":"0","num_feature":"3","num_nodes":"103","size_leaf_vector":"0"}},{"base_weights":[7.148794E3,5.8770845E3,9.255203E3,5.6226514E3,2.0040846E4,2.4274014E4,8.627917E3,4.919228E3,7.6974624E3,1.8668527E4,1.6312733E5,1.3473906E4,5.4339043E4,1.1893657E4,7.068906E3,5.1774375E3,-2.1714041E4,3.789214E4,6.0023833E3,1.761195E4,8.8276734E4,1.9609299E4,-1.201544E4,2.0125598E5,3.4605492E4,9.644038E3,3.2308541E4,-8.296266E2,9.5171875E3,5.42216E3,-3.8275857E3,-3.3982035E4,1.2963494E5,-1.1060053E4,5.6223613E4,-4.9248115E3,7.943553E3,1.1801896E4,2.2508473E4,5.5414953E4,1.2285662E5,2.9267725E4,1.3774224E4,-2.275046E4,-7.55291E3,1.5182845E5,3.080535E5,5.205013E4,-1.5762354E4,9.0835E3,4.8941637E4,3.494826E4,-3.819619E4,-1.1338979E4,2.3147556E3,2.0852055E4,7.289745E3,5.017497E3,3.7365008E4,-5.4666113E4,1.0854087E4,-9.276103E3,-1.3848252E5,2.731821E4,-1.3076171E5,3.795485E4,8.071214E4,2.0181365E4,-1.7079738E4,1.7315867E4,5.077559E3,1.34101875E4,-1.1882376E4,2.202014E4,3.0733248E4,5.5200625E3,6.0961805E4,1.8236717E4,1.05395625E5,-3.0580812E4,2.1737814E4,-1.5709794E4,-2.5236125E4,1.695979E4,1.14749164E5,-1.1668949E4,-3.4226336E4,-7.6678657E3,1.0215239E4,1.5431537E4,6.995523E4,2.9717592E4,5.9749637E4,-4.3653664E4,-2.7236458E3,-7.2379707E3,-6.0838375E4,1.9824686E4,8.581973E2,9.926072E3,3.996794E4,-3.6301355E3,8.676124E3],"categories":[],"categories_nodes":[],"categories_segments":[],"categories_sizes":[],"default_left":[true,true,true,true,true,true,true,true,true,true,false,true,true,true,true,true,true,true,true,true,true,true,true,true,true,true,true,true,true,true,true,true,false,true,true,true,true,true,true,true,false,true,true,true,false,false,false,true,true,true,true,true,true,true,true,true,true,false,false,false,false,false,false,false,false,false,false,false,false,false,false,false,false,false,false,false,false,false,false,false,false,false,false,false,false,false,false,false,false,false,false,false,false,false,false,false,false,false,false,false,false,false,false],"id":6,"left_children":[1,3,5,7,9,11,13,15,17,19,-1,21,23,25,27,29,31,33,35,37,39,41,43,45,47,49,51,53,55,57,59,61,-1,63,65,67,69,71,73,75,-1,77,79,81,-1,-1,-1,83,85,87,89,91,93,95,97,99,101,-1,-1,-1,-1,-1,-1,-1,-1,-1,-1,-1,-1,-1,-1,-1,-1,-1,-1,-1,-1,-1,-1,-1,-1,-1,-1,-1,-1,-1,-1,-1,-1,-1,-1,-1,-1,-1,-1,-1,-1,-1,-1,-1,-1,-1,-1],"loss_changes":[2.3397925E11,1.9621832E11,3.096314E11,7.807304E10,1.8565677E11,4.2722984E11,1.6065416E11,2.7499836E11,6.9324256E11,6.853509E10,0E0,1.5208754E11,1.0019546E12,4.6813073E11,4.132959E11,8.72642E10,7.173967E11,6.467251E11,2.7218316E11,2.6476478E10,9.100894E9,4.3724866E10,8.88228E9,1.6965698E11,2.7144431E11,2.0196884E11,1.8968104E11,1.6716998E11,4.1176505E11,4.9800977E11,7.828149E11,9.1782984E11,0E0,9.085787E11,2.3136122E11,5.9114167E11,2.9256267E11,1.661474E10,1.3676052E9,2.154322E9,0E0,2.4496954E11,1.7374518E11,5.660856E8,0E0,0E0,0E0,5.018838E11,5.647059E9,1.7185833E11,8.975807E10,1.2483861E11,7.0439485E9,2.3605163E11,9.9296485E10,5.5913873E11,2.064833E11,0E0,0E0,0E0,0E0,0E0,0E0,0E0,0E0,0E0,0E0,0E0,0E0,0E0,0E0,0E0,0E0,0E0,0E0,0E0,0E0,0E0,0E0,0E0,0E0,0E0,0E0,0E0,0E0,0E0,0E0,0E0,0E0,0E0,0E0,0E0,0E0,0E0,0E0,0E0,0E0,0E0,0E0,0E0,0E0,0E0,0E0],"parents":[2147483647,0,0,1,1,2,2,3,3,4,4,5,5,6,6,7,7,8,8,9,9,11,11,12,12,13,13,14,14,15,15,16,16,17,17,18,18,19,19,20,20,21,21,22,22,23,23,24,24,25,25,26,26,27,27,28,28,29,29,30,30,31,31,33,33,34,34,35,35,36,36,37,37,38,38,39,39,41,41,42,42,43,43,47,47,48,48,49,49,50,50,51,51,52,52,53,53,54,54,55,55,56,56],"right_children":[2,4,6,8,10,12,14,16,18,20,-1,22,24,26,28,30,32,34,36,38,40,42,44,46,48,50,52,54,56,58,60,62,-1,64,66,68,70,72,74,76,-1,78,80,82,-1,-1,-1,84,86,88,90,92,94,96,98,100,102,-1,-1,-1,-1,-1,-1,-1,-1,-1,-1,-1,-1,-1,-1,-1,-1,-1,-1,-1,-1,-1,-1,-1,-1,-1,-1,-1,-1,-1,-1,-1,-1,-1,-1,-1,-1,-1,-1,-1,-1,-1,-1,-1,-1,-1,-1],"split_conditions":[1.045E2,2.0165E3,1.055E2,2.0105E3,9.45E1,1.9965E3,1.9925E3,2.0095E3,2.0115E3,2.0185E3,8.1563664E4,1.9935E3,1.9985E3,1.9915E3,1.9965E3,2.0065E3,9.65E1,9.25E1,2.0125E3,9.25E1,8.8E1,1.9865E3,1.9955E3,1.9975E3,2.0125E3,1.595E2,1.61E2,1.195E2,1.9985E3,2.0055E3,2.0075E3,9.5E1,6.481747E4,9.15E1,9.45E1,9.15E1,2.0135E3,2.0175E3,9.35E1,1.5E0,6.142831E4,1.9855E3,1.9885E3,1.9945E3,-3.776455E3,7.591423E4,1.5402675E5,3.5E0,2.0145E3,1.085E2,1.9835E3,1.475E2,1.75E2,1.145E2,1.225E2,1.225E2,1.9995E3,2.5087485E3,1.8682504E4,-2.7333057E4,5.4270435E3,-4.6380513E3,-6.924126E4,1.3659105E4,-6.5380855E4,1.8977426E4,4.035607E4,1.0090683E4,-8.539869E3,8.657934E3,2.5387795E3,6.7050938E3,-5.941188E3,1.101007E4,1.5366624E4,2.7600312E3,3.0480902E4,9.118358E3,5.2697812E4,-1.5290406E4,1.0868907E4,-7.854897E3,-1.26180625E4,8.479895E3,5.7374582E4,-5.8344746E3,-1.7113168E4,-3.8339329E3,5.1076196E3,7.7157686E3,3.4977613E4,1.4858796E4,2.9874818E4,-2.1826832E4,-1.3618229E3,-3.6189854E3,-3.0419188E4,9.912343E3,4.2909866E2,4.963036E3,1.998397E4,-1.8150677E3,4.338062E3],"split_indices":[1,2,1,2,1,2,2,2,2,2,0,2,2,2,2,2,1,1,2,1,1,2,2,2,2,1,1,1,2,2,2,1,0,1,1,1,2,2,1,0,0,2,2,2,0,0,0,0,2,1,2,1,1,1,1,1,2,0,0,0,0,0,0,0,0,0,0,0,0,0,0,0,0,0,0,0,0,0,0,0,0,0,0,0,0,0,0,0,0,0,0,0,0,0,0,0,0,0,0,0,0,0,0],"split_type":[0,0,0,0,0,0,0,0,0,0,0,0,0,0,0,0,0,0,0,0,0,0,0,0,0,0,0,0,0,0,0,0,0,0,0,0,0,0,0,0,0,0,0,0,0,0,0,0,0,0,0,0,0,0,0,0,0,0,0,0,0,0,0,0,0,0,0,0,0,0,0,0,0,0,0,0,0,0,0,0,0,0,0,0,0,0,0,0,0,0,0,0,0,0,0,0,0,0,0,0,0,0,0],"sum_hessian":[8.7366E4,5.4479E4,3.2887E4,5.3519E4,9.6E2,1.317E3,3.157E4,3.9971E4,1.3548E4,9.52E2,8E0,9.7E2,3.47E2,1.0199E4,2.1371E4,3.9588E4,3.83E2,7.19E2,1.2829E4,9.39E2,1.3E1,7.82E2,1.88E2,4E1,3.07E2,9.188E3,1.011E3,5.057E3,1.6314E4,3.8541E4,1.047E3,3.55E2,2.8E1,1.96E2,5.23E2,1.935E3,1.0894E4,4.31E2,5.08E2,8E0,5E0,2.93E2,4.89E2,5.4E1,1.34E2,2.9E1,1.1E1,2.28E2,7.9E1,9.06E3,1.28E2,9.75E2,3.6E1,1.164E3,3.893E3,2.678E3,1.3636E4,3.806E4,4.81E2,2.34E2,8.13E2,2.88E2,6.7E1,1.49E2,4.7E1,3.01E2,2.22E2,6.31E2,1.304E3,2.55E3,8.344E3,4.04E2,2.7E1,4.83E2,2.5E1,1E0,7E0,2.57E2,3.6E1,7.4E1,4.15E2,1.6E1,3.8E1,1.47E2,8.1E1,6.6E1,1.3E1,5.73E2,8.487E3,5E1,7.8E1,8.07E2,1.68E2,3.1E1,5E0,1.076E3,8.8E1,2.98E2,3.595E3,1.705E3,9.73E2,1.536E3,1.21E4],"tree_param":{"num_deleted":"0","num_feature":"3","num_nodes":"103","size_leaf_vector":"0"}},{"base_weights":[3.5811394E3,3.4605303E3,1.6760771E4,1.1528501E3,3.9746428E3,1.4691637E4,1.3069615E5,8.2138214E2,8.279421E3,7.4412856E3,3.2834666E3,1.1895034E4,4.861806E4,-5.6945375E4,1.4951053E5,2.355863E3,-1.237591E3,2.2019223E4,5.4036973E3,6.7210205E3,2.5927541E4,-6.6825806E3,4.0207798E3,2.6790342E4,2.9182642E3,3.751684E4,8.8971414E4,-1.624811E3,3.9601636E3,3.8250897E2,-9.695352E3,2.5736445E4,-1.7492676E4,2.7436926E3,1.1220171E4,7.741978E3,-2.857076E3,5.75685E4,1.821111E4,2.2570632E3,-1.4638749E4,4.0024368E3,1.0442954E5,1.838356E4,7.632854E4,1.0570601E4,-7.366053E3,4.4279E4,2.8909725E4,9.317703E4,2.1354812E4,-3.784415E4,-1.4629835E3,1.132726E4,2.227673E3,-5.102089E3,1.2469941E3,-1.4661329E4,5.885176E2,1.0059277E4,2.9498676E4,-2.0069953E4,4.140047E3,9.749794E3,-2.580009E2,7.8799414E2,1.6736467E4,6.5012354E3,2.1281467E4,-3.1867576E4,1.0527255E4,-1.2851583E3,1.1925531E5,-1.1632546E4,2.775995E4,1.2783611E3,4.0318258E4,-1.9289445E4,4.0848872E3,8.0855757E3,3.6690342E3,1.1511595E5,4.1259062E3,2.4636006E4,-9.816459E3,3.212527E4,1.7310878E5,3.3445593E3,2.4574105E4,-2.3556898E4,7.9270015E3],"categories":[],"categories_nodes":[],"categories_segments":[],"categories_sizes":[],"default_left":[true,true,true,true,true,true,true,true,true,true,true,true,true,false,false,true,true,true,true,true,true,true,true,true,true,true,true,true,true,true,true,true,true,true,true,true,true,true,true,true,true,true,true,true,true,true,true,false,false,false,false,false,false,false,false,false,false,false,false,false,false,false,false,false,false,false,false,false,false,false,false,false,false,false,false,false,false,false,false,false,false,false,false,false,false,false,false,false,false,false,false],"id":7,"left_children":[1,3,5,7,9,11,13,15,17,19,21,23,25,-1,-1,27,29,31,33,35,37,39,41,43,45,47,49,51,53,55,57,59,61,63,65,67,69,71,73,75,77,79,81,83,85,87,89,-1,-1,-1,-1,-1,-1,-1,-1,-1,-1,-1,-1,-1,-1,-1,-1,-1,-1,-1,-1,-1,-1,-1,-1,-1,-1,-1,-1,-1,-1,-1,-1,-1,-1,-1,-1,-1,-1,-1,-1,-1,-1,-1,-1],"loss_changes":[1.3881914E11,1.0270992E11,1.8479202E11,3.725738E10,1.6962145E11,7.333221E10,5.7938952E10,4.7631704E10,2.757884E10,1.5652998E11,4.338145E11,9.632799E10,2.309238E10,0E0,0E0,5.517041E10,8.821987E10,1.822201E10,8.95836E9,1.1080647E11,1.0662409E11,2.892997E11,1.008215E11,1.1145657E11,3.557114E10,1.51364E9,1.4226555E9,1.449234E10,7.855916E10,2.562864E10,5.2865524E10,6.2501683E9,6.9637914E8,8.414584E9,1.0460361E10,1.7185E11,4.2434396E11,3.123758E11,1.0177306E11,7.132055E10,1.8747054E11,7.478772E10,1.0243908E10,4.132419E10,1.6128095E11,2.6125994E10,4.7974978E10,0E0,0E0,0E0,0E0,0E0,0E0,0E0,0E0,0E0,0E0,0E0,0E0,0E0,0E0,0E0,0E0,0E0,0E0,0E0,0E0,0E0,0E0,0E0,0E0,0E0,0E0,0E0,0E0,0E0,0E0,0E0,0E0,0E0,0E0,0E0,0E0,0E0,0E0,0E0,0E0,0E0,0E0,0E0,0E0],"parents":[2147483647,0,0,1,1,2,2,3,3,4,4,5,5,6,6,7,7,8,8,9,9,10,10,11,11,12,12,15,15,16,16,17,17,18,18,19,19,20,20,21,21,22,22,23,23,24,24,25,25,26,26,27,27,28,28,29,29,30,30,31,31,32,32,33,33,34,34,35,35,36,36,37,37,38,38,39,39,40,40,41,41,42,42,43,43,44,44,45,45,46,46],"right_children":[2,4,6,8,10,12,14,16,18,20,22,24,26,-1,-1,28,30,32,34,36,38,40,42,44,46,48,50,52,54,56,58,60,62,64,66,68,70,72,74,76,78,80,82,84,86,88,90,-1,-1,-1,-1,-1,-1,-1,-1,-1,-1,-1,-1,-1,-1,-1,-1,-1,-1,-1,-1,-1,-1,-1,-1,-1,-1,-1,-1,-1,-1,-1,-1,-1,-1,-1,-1,-1,-1,-1,-1,-1,-1,-1,-1],"split_conditions":[1.525E2,6.85E1,1.9965E3,2.0155E3,1.9845E3,1.88E2,1.615E2,1.9825E3,6.6E1,1.365E2,1.9855E3,1.565E2,1.955E2,-2.8472688E4,7.4755266E4,1.9735E3,6.75E1,2.0165E3,2.0165E3,1.205E2,1.9835E3,9.55E1,5.5E0,1.555E2,1.9945E3,1.895E2,2.46E2,1.9665E3,1.9755E3,4.85E1,2.0125E3,1.5E0,2.0185E3,6.75E1,6.75E1,1.175E2,1.215E2,1.9825E3,1.405E2,9.35E1,4.5E0,1.9875E3,1.505E2,1.994E3,1.9935E3,1.645E2,1.735E2,2.21395E4,1.4454862E4,4.6588516E4,1.0677406E4,-1.8922074E4,-7.3149176E2,5.66363E3,1.1138365E3,-2.5510444E3,6.234971E2,-7.3306646E3,2.942588E2,5.0296387E3,1.4749338E4,-1.0034977E4,2.0700234E3,4.874897E3,-1.2900044E2,3.9399707E2,8.368233E3,3.2506177E3,1.0640733E4,-1.5933788E4,5.2636274E3,-6.4257916E2,5.9627656E4,-5.816273E3,1.3879975E4,6.3918054E2,2.0159129E4,-9.644723E3,2.0424436E3,4.0427878E3,1.8345171E3,5.7557977E4,2.0629531E3,1.2318003E4,-4.9082295E3,1.6062635E4,8.655439E4,1.6722797E3,1.2287053E4,-1.1778449E4,3.9635007E3],"split_indices":[1,1,2,2,2,1,1,2,1,1,2,1,1,0,0,2,1,2,2,1,2,1,0,1,2,1,1,2,2,1,2,0,2,1,1,1,1,2,1,1,0,2,1,2,2,1,1,0,0,0,0,0,0,0,0,0,0,0,0,0,0,0,0,0,0,0,0,0,0,0,0,0,0,0,0,0,0,0,0,0,0,0,0,0,0,0,0,0,0,0,0],"split_type":[0,0,0,0,0,0,0,0,0,0,0,0,0,0,0,0,0,0,0,0,0,0,0,0,0,0,0,0,0,0,0,0,0,0,0,0,0,0,0,0,0,0,0,0,0,0,0,0,0,0,0,0,0,0,0,0,0,0,0,0,0,0,0,0,0,0,0,0,0,0,0,0,0,0,0,0,0,0,0,0,0,0,0,0,0,0,0,0,0,0,0],"sum_hessian":[8.7366E4,8.6575E4,7.91E2,1.5774E4,7.0801E4,7.78E2,1.3E1,1.5074E4,7E2,1.1768E4,5.9033E4,7.2E2,5.8E1,1E0,1.2E1,8.637E3,6.437E3,1.2E2,5.8E2,1.1328E4,4.4E2,4.066E3,5.4967E4,2.7E2,4.5E2,4.7E1,1.1E1,2.481E3,6.156E3,5.403E3,1.034E3,1.1E2,1E1,3.99E2,1.81E2,1.0237E4,1.091E3,8.5E1,3.55E2,1.915E3,2.151E3,5.4958E4,9E0,2.32E2,3.8E1,2.58E2,1.92E2,2.4E1,2.3E1,1E1,1E0,1E1,2.471E3,1.171E3,4.985E3,7.35E2,4.668E3,6.97E2,3.37E2,2.2E1,8.8E1,9E0,1E0,1.19E2,2.8E2,6.3E1,1.18E2,9.379E3,8.58E2,3.44E2,7.47E2,4.4E1,4.1E1,8.6E1,2.69E2,1.868E3,4.7E1,1.723E3,4.28E2,4.147E3,5.0811E4,8E0,1E0,1.9E2,4.2E1,2.7E1,1.1E1,1.71E2,8.7E1,9.3E1,9.9E1],"tree_param":{"num_deleted":"0","num_feature":"3","num_nodes":"91","size_leaf_vector":"0"}},{"base_weights":[1.7952435E3,5.341137E2,2.4358447E3,1.3812982E3,-6.8561875E3,8.887149E3,2.1950928E3,6.706949E2,4.581243E3,1.013651E3,-4.294025E4,1.1492419E4,-4.6048423E3,1.3998173E3,4.530486E3,1.6457227E3,-9.8341995E1,1.978002E3,1.7647229E4,-3.0220078E3,1.15044695E5,-2.8679451E4,-7.836122E4,8.4380597E2,1.6770418E4,3.902676E4,-2.3627938E4,1.8572665E3,-3.1585527E4,1.3848317E5,2.5470256E3,1.0074468E3,1.0248305E4,-1.0547528E3,2.4887778E3,3.0750608E3,-3.6865895E4,3.7159598E4,1.0001901E4,-1.2108508E3,-5.6263863E4,-3.82378E4,6.584215E4,-6.399599E4,-1.1314633E5,2.2379732E4,-9.623381E3,1.327294E4,9.637051E4,8.787101E4,1.9619963E4,-1.07455266E5,-1.536867E4,1.6638395E3,2.1336605E4,-1.6075134E5,-2.2576686E4,1.5126064E5,8.306074E4,2.121805E3,1.8539805E4,1.9202073E3,-1.31899E4,4.7712477E4,4.532166E3,-2.3986102E2,-1.2828163E4,3.5990728E3,-3.6670598E4,1.4061357E3,1.6304574E4,-2.4920725E4,-8.937312E4,1.1899609E4,4.3620605E4,-2.0880555E4,1.973137E4,-3.6916766E4,9.734502E2,-7.282983E4,-3.1883777E4,1.0440849E5,-2.2198481E3,-4.0507107E3,4.941562E4,1.9988264E3,-2.606464E4,1.0982238E4,4.1036414E4,1.4184328E5,-1.6157309E4,-3.4883094E4,9.350091E4,-5.7915E4,2.5985531E4,-1.5094702E5,-7.492745E4,-4.2675024E3,-2.7063547E4,-2.928249E3,2.315535E3,3.0267955E4,-5.058834E4,-1.2292936E5,-2.141068E5,-2.5477297E4,1.4945639E5,1.12219734E5,1.850335E5,9.278453E4,6.206828E4,2.7096226E3,-4.358733E4,4.112777E4,6.1576797E3],"categories":[],"categories_nodes":[],"categories_segments":[],"categories_sizes":[],"default_left":[true,true,true,true,true,true,true,true,true,true,true,true,true,true,true,true,true,true,true,true,false,true,true,true,true,true,true,true,true,true,true,true,true,true,true,true,true,true,true,true,false,true,true,false,false,true,true,true,true,true,true,true,true,true,true,true,true,true,true,true,true,false,false,false,false,false,false,false,false,false,false,false,false,false,false,false,false,false,false,false,false,false,false,false,false,false,false,false,false,false,false,false,false,false,false,false,false,false,false,false,false,false,false,false,false,false,false,false,false,false,false,false,false,false,false],"id":8,"left_children":[1,3,5,7,9,11,13,15,17,19,21,23,25,27,29,31,33,35,37,39,-1,41,43,45,47,49,51,53,55,57,59,61,63,65,67,69,71,73,75,77,-1,79,81,-1,-1,83,85,87,89,91,93,95,97,99,101,103,105,107,109,111,113,-1,-1,-1,-1,-1,-1,-1,-1,-1,-1,-1,-1,-1,-1,-1,-1,-1,-1,-1,-1,-1,-1,-1,-1,-1,-1,-1,-1,-1,-1,-1,-1,-1,-1,-1,-1,-1,-1,-1,-1,-1,-1,-1,-1,-1,-1,-1,-1,-1,-1,-1,-1,-1,-1],"loss_changes":[7.0580896E10,1.8427547E11,8.996612E10,6.0039037E10,8.5963814E11,7.3306096E10,1.037302E11,1.6202536E10,1.6316387E11,1.144381E12,2.715338E11,9.817316E10,2.8146486E11,6.2877696E11,3.7692543E12,5.2306215E10,2.9895242E10,1.7065476E11,1.1852353E11,2.3155517E11,0E0,3.5306426E11,7.021199E10,1.309593E11,3.2389153E11,9.591076E10,1.617437E11,1.5481476E11,6.596423E11,1.3402479E11,9.504474E10,1.1498264E11,1.4069472E11,8.462609E10,1.4191521E11,8.5930885E10,6.6765603E10,3.603887E10,1.7288169E11,1.8129043E11,0E0,7.526685E10,9.472826E10,0E0,0E0,1.3596856E11,7.4765844E10,7.077896E10,2.5302244E11,2.3303307E10,3.852151E10,1.8398446E10,2.792709E10,1.2179239E11,2.610555E11,4.8346366E10,2.702742E11,1.9942893E11,2.6102006E9,3.6609573E11,1.0099345E11,0E0,0E0,0E0,0E0,0E0,0E0,0E0,0E0,0E0,0E0,0E0,0E0,0E0,0E0,0E0,0E0,0E0,0E0,0E0,0E0,0E0,0E0,0E0,0E0,0E0,0E0,0E0,0E0,0E0,0E0,0E0,0E0,0E0,0E0,0E0,0E0,0E0,0E0,0E0,0E0,0E0,0E0,0E0,0E0,0E0,0E0,0E0,0E0,0E0,0E0,0E0,0E0,0E0,0E0],"parents":[2147483647,0,0,1,1,2,2,3,3,4,4,5,5,6,6,7,7,8,8,9,9,10,10,11,11,12,12,13,13,14,14,15,15,16,16,17,17,18,18,19,19,21,21,22,22,23,23,24,24,25,25,26,26,27,27,28,28,29,29,30,30,31,31,32,32,33,33,34,34,35,35,36,36,37,37,38,38,39,39,41,41,42,42,45,45,46,46,47,47,48,48,49,49,50,50,51,51,52,52,53,53,54,54,55,55,56,56,57,57,58,58,59,59,60,60],"right_children":[2,4,6,8,10,12,14,16,18,20,22,24,26,28,30,32,34,36,38,40,-1,42,44,46,48,50,52,54,56,58,60,62,64,66,68,70,72,74,76,78,-1,80,82,-1,-1,84,86,88,90,92,94,96,98,100,102,104,106,108,110,112,114,-1,-1,-1,-1,-1,-1,-1,-1,-1,-1,-1,-1,-1,-1,-1,-1,-1,-1,-1,-1,-1,-1,-1,-1,-1,-1,-1,-1,-1,-1,-1,-1,-1,-1,-1,-1,-1,-1,-1,-1,-1,-1,-1,-1,-1,-1,-1,-1,-1,-1,-1,-1,-1,-1],"split_conditions":[9.05E1,8.85E1,1.9785E3,2.5E0,2.0085E3,1.205E2,2.0085E3,1.9805E3,2.0045E3,2.0075E3,2.0145E3,1.9765E3,1.9755E3,2.0065E3,9.15E1,7.75E1,2.0125E3,2.0035E3,2.0095E3,2.0065E3,5.7522348E4,2.0125E3,2.0155E3,1.065E2,1.195E2,1.235E2,1.215E2,2.0055E3,9.15E1,2.0125E3,1.165E2,7.35E1,1.975E3,2.0095E3,7.05E1,8.65E1,8.65E1,8.05E1,2.0135E3,1.9805E3,-2.8131932E4,8.95E1,2.0135E3,-3.1997994E4,-5.6573164E4,1.975E3,1.9755E3,1.185E2,1.9775E3,3.5E0,1.255E2,1.9765E3,1.9775E3,9.85E1,1.115E2,2.0075E3,1.145E2,2.0115E3,2.0135E3,1.145E2,1.175E2,9.6010364E2,-6.59495E3,2.3856238E4,2.266083E3,-1.1993051E2,-6.4140815E3,1.7995364E3,-1.8335299E4,7.030679E2,8.152287E3,-1.2460362E4,-4.468656E4,5.9498047E3,2.1810303E4,-1.0440277E4,9.865685E3,-1.8458383E4,4.867251E2,-3.6414914E4,-1.5941889E4,5.2204246E4,-1.1099241E3,-2.0253553E3,2.470781E4,9.994132E2,-1.303232E4,5.491119E3,2.0518207E4,7.092164E4,-8.0786543E3,-1.7441547E4,4.6750453E4,-2.89575E4,1.2992766E4,-7.547351E4,-3.7463727E4,-2.1337512E3,-1.3531773E4,-1.4641245E3,1.1577675E3,1.5133978E4,-2.529417E4,-6.146468E4,-1.070534E5,-1.2738648E4,7.4728195E4,5.6109867E4,9.251675E4,4.6392266E4,3.103414E4,1.3548113E3,-2.1793664E4,2.0563885E4,3.0788398E3],"split_indices":[1,1,2,0,2,1,2,2,2,2,2,2,2,2,1,1,2,2,2,2,0,2,2,1,1,1,1,2,1,2,1,1,2,2,1,1,1,1,2,2,0,1,2,0,0,2,2,1,2,0,1,2,2,1,1,2,1,2,2,1,1,0,0,0,0,0,0,0,0,0,0,0,0,0,0,0,0,0,0,0,0,0,0,0,0,0,0,0,0,0,0,0,0,0,0,0,0,0,0,0,0,0,0,0,0,0,0,0,0,0,0,0,0,0,0],"split_type":[0,0,0,0,0,0,0,0,0,0,0,0,0,0,0,0,0,0,0,0,0,0,0,0,0,0,0,0,0,0,0,0,0,0,0,0,0,0,0,0,0,0,0,0,0,0,0,0,0,0,0,0,0,0,0,0,0,0,0,0,0,0,0,0,0,0,0,0,0,0,0,0,0,0,0,0,0,0,0,0,0,0,0,0,0,0,0,0,0,0,0,0,0,0,0,0,0,0,0,0,0,0,0,0,0,0,0,0,0,0,0,0,0,0,0],"sum_hessian":[8.7366E4,2.943E4,5.7936E4,2.6404E4,3.026E3,2.083E3,5.5853E4,2.1607E4,4.797E3,2.485E3,5.41E2,1.746E3,3.37E2,4.1666E4,1.4187E4,9.527E3,1.208E4,4.001E3,7.96E2,2.401E3,8.4E1,3.87E2,1.54E2,5.79E2,1.167E3,1.02E2,2.35E2,4.1097E4,5.69E2,2.06E2,1.3981E4,8.87E3,6.57E2,8.82E3,3.26E3,3.892E3,1.09E2,2.23E2,5.73E2,2.323E3,7.8E1,3.52E2,3.5E1,1.11E2,4.3E1,1.89E2,3.9E2,1.119E3,4.8E1,2.8E1,7.4E1,2E1,2.15E2,4.0694E4,4.03E2,3.6E1,5.33E2,1.66E2,4E1,1.362E4,3.61E2,8.335E3,5.35E2,8.6E1,5.71E2,8.25E3,5.7E2,3.171E3,8.9E1,3.457E3,4.35E2,9E1,1.9E1,4.6E1,1.77E2,1.37E2,4.36E2,1.33E2,2.19E3,5.3E1,2.99E2,2.2E1,1.3E1,9.6E1,9.3E1,2.29E2,1.61E2,1.035E3,8.4E1,3.4E1,1.4E1,1E0,2.7E1,5E0,6.9E1,7E0,1.3E1,1.11E2,1.04E2,5.057E3,3.5637E4,3.59E2,4.4E1,2.3E1,1.3E1,5.25E2,8E0,7.9E1,8.7E1,2.5E1,1.5E1,1.3448E4,1.72E2,1.27E2,2.34E2],"tree_param":{"num_deleted":"0","num_feature":"3","num_nodes":"115","size_leaf_vector":"0"}},{"base_weights":[8.9755743E2,7.998007E2,7.1256587E3,1.048024E3,-9.646745E2,6.7011025E3,1.0110932E5,7.853896E2,7.449076E3,-1.3595778E3,3.9727562E4,6.3009756E3,4.4291668E4,1.1938495E5,4.8655938E3,9.123617E2,-3.2311702E3,4.901439E3,2.931007E4,-1.8730194E2,-5.8795786E3,3.1048556E5,2.2570084E4,9.785333E2,8.845919E3,2.289242E4,6.900859E4,7.214207E2,1.2379813E4,-6.2199087E3,1.7082615E4,9.096812E3,-2.4280426E4,4.293471E4,1.0855215E4,-6.24928E2,5.3891703E4,-2.8076422E4,-3.8393845E3,5.473035E3,5.712743E4,4.973996E3,-2.208634E3,9.232669E3,-8.652047E3,2.2052656E3,2.5202656E4,1.0106901E3,-3.0480422E3,2.1699883E4,-6.488518E3,-4.878007E3,-1.900954E5,1.3960795E5,-4.669124E3,3.2789702E3,3.4136543E4,-3.730643E4,-9.627071E3,3.980545E4,5.9697855E4,5.1094146E3,7.411687E4,-2.7964767E2,-1.0273689E4,6.9017086E4,2.8927541E4,-1.1317444E4,-4.082052E4,2.38063E4,-5.3047397E3,-1.05887E4,2.0354395E5,8.307906E4,-4.742541E4,2.2513884E3,6.731255E4,-9.4918625E4,1.3819176E3,8.916183E3,2.0665076E4],"categories":[],"categories_nodes":[],"categories_segments":[],"categories_sizes":[],"default_left":[true,true,true,true,true,true,true,true,true,true,true,true,true,false,false,true,true,true,true,true,true,false,true,true,true,true,false,true,true,true,true,true,true,true,true,true,true,true,true,true,true,true,true,true,false,false,false,false,false,false,false,false,false,false,false,false,false,false,false,false,false,false,false,false,false,false,false,false,false,false,false,false,false,false,false,false,false,false,false,false,false],"id":9,"left_children":[1,3,5,7,9,11,13,15,17,19,21,23,25,-1,-1,27,29,31,33,35,37,-1,39,41,43,45,-1,47,49,51,53,55,57,59,61,63,65,67,69,71,73,75,77,79,-1,-1,-1,-1,-1,-1,-1,-1,-1,-1,-1,-1,-1,-1,-1,-1,-1,-1,-1,-1,-1,-1,-1,-1,-1,-1,-1,-1,-1,-1,-1,-1,-1,-1,-1,-1,-1],"loss_changes":[5.3186683E10,3.7675508E10,5.3189235E10,1.2676866E11,1.7053532E11,1.9951055E10,9.972609E9,3.6946174E10,1.6537854E11,5.5677506E10,4.668359E11,1.8033705E10,5.825157E9,0E0,0E0,1.537452E11,1.3488819E11,3.262488E11,7.748056E10,1.975296E11,9.789083E10,0E0,5.699773E10,5.5121633E9,6.1772595E9,3.7455155E8,0E0,7.531743E10,2.0237309E11,4.7676686E11,7.6021655E11,3.3917023E11,6.3583863E10,6.960906E9,4.7965315E10,2.757884E10,2.3302193E10,3.8409224E10,8.0459104E10,2.1212519E11,9.0766205E10,3.2435343E10,8.035525E10,3.0069965E9,0E0,0E0,0E0,0E0,0E0,0E0,0E0,0E0,0E0,0E0,0E0,0E0,0E0,0E0,0E0,0E0,0E0,0E0,0E0,0E0,0E0,0E0,0E0,0E0,0E0,0E0,0E0,0E0,0E0,0E0,0E0,0E0,0E0,0E0,0E0,0E0,0E0],"parents":[2147483647,0,0,1,1,2,2,3,3,4,4,5,5,6,6,7,7,8,8,9,9,10,10,11,11,12,12,15,15,16,16,17,17,18,18,19,19,20,20,22,22,23,23,24,24,25,25,27,27,28,28,29,29,30,30,31,31,32,32,33,33,34,34,35,35,36,36,37,37,38,38,39,39,40,40,41,41,42,42,43,43],"right_children":[2,4,6,8,10,12,14,16,18,20,22,24,26,-1,-1,28,30,32,34,36,38,-1,40,42,44,46,-1,48,50,52,54,56,58,60,62,64,66,68,70,72,74,76,78,80,-1,-1,-1,-1,-1,-1,-1,-1,-1,-1,-1,-1,-1,-1,-1,-1,-1,-1,-1,-1,-1,-1,-1,-1,-1,-1,-1,-1,-1,-1,-1,-1,-1,-1,-1,-1,-1],"split_conditions":[2.0165E3,2.0135E3,1.145E2,2.0125E3,1.135E2,2.0185E3,1.155E2,2.0115E3,1.125E2,1.045E2,1.145E2,9.25E1,8.8E1,5.9692477E4,2.4327969E3,2.0105E3,3.5E0,9.65E1,1.145E2,9.65E1,1.105E2,1.5524278E5,2.0155E3,7.05E1,1.135E2,1.5E0,3.4504297E4,2.0035E3,1.065E2,9.85E1,1.11E2,9.35E1,9.95E1,1.135E2,1.205E2,9.35E1,3.5E0,1.065E2,2.0145E3,1.165E2,1.16E2,6.85E1,8.5E1,2.0175E3,-4.3260234E3,1.1026328E3,1.2601328E4,5.0534506E2,-1.5240211E3,1.0849941E4,-3.244259E3,-2.4390034E3,-9.50477E4,6.980398E4,-2.334562E3,1.6394851E3,1.7068271E4,-1.8653215E4,-4.8135356E3,1.9902725E4,2.9848928E4,2.5547073E3,3.7058434E4,-1.3982384E2,-5.1368447E3,3.4508543E4,1.44637705E4,-5.658722E3,-2.041026E4,1.190315E4,-2.6523699E3,-5.29435E3,1.0177198E5,4.153953E4,-2.3712705E4,1.1256942E3,3.3656273E4,-4.7459312E4,6.909588E2,4.4580913E3,1.0332538E4],"split_indices":[2,2,1,2,1,2,1,2,1,1,1,1,1,0,0,2,0,1,1,1,1,0,2,1,1,0,0,2,1,1,1,1,1,1,1,1,0,1,2,1,1,1,1,2,0,0,0,0,0,0,0,0,0,0,0,0,0,0,0,0,0,0,0,0,0,0,0,0,0,0,0,0,0,0,0,0,0,0,0,0,0],"split_type":[0,0,0,0,0,0,0,0,0,0,0,0,0,0,0,0,0,0,0,0,0,0,0,0,0,0,0,0,0,0,0,0,0,0,0,0,0,0,0,0,0,0,0,0,0,0,0,0,0,0,0,0,0,0,0,0,0,0,0,0,0,0,0,0,0,0,0,0,0,0,0,0,0,0,0,0,0,0,0,0,0],"sum_hessian":[8.7366E4,8.6017E4,1.349E3,7.5409E4,1.0608E4,1.344E3,5E0,7.2438E4,2.971E3,1.0507E4,1.01E2,1.331E3,1.3E1,4E0,1E0,7.0219E4,2.219E3,2.662E3,3.09E2,8.344E3,2.163E3,5E0,9.6E1,4.31E2,9E2,8E0,5E0,6.907E4,1.149E3,1.935E3,2.84E2,2.328E3,3.34E2,1.77E2,1.32E2,8.278E3,6.6E1,1.81E2,1.982E3,6.5E1,3.1E1,1.91E2,2.4E2,8.81E2,1.9E1,1E0,7E0,6.4148E4,4.922E3,7.69E2,3.8E2,1.922E3,1.3E1,4.2E1,2.42E2,1.89E3,4.38E2,1.76E2,1.58E2,1.52E2,2.5E1,1.22E2,1E1,7.993E3,2.85E2,4E1,2.6E1,7.9E1,1.02E2,9.9E1,1.883E3,6.1E1,4E0,2.5E1,6E0,1.84E2,7E0,8E0,2.32E2,8.59E2,2.2E1],"tree_param":{"num_deleted":"0","num_feature":"3","num_nodes":"81","size_leaf_vector":"0"}},{"base_weights":[4.541128E2,-5.932946E1,1.2838441E3,2.7918854E2,-6.9594937E3,1.3926074E3,-2.0366432E4,-8.169313E2,1.497143E3,-1.5536516E4,1.8085125E3,1.2392455E3,3.2690668E4,-3.3410457E4,5.506006E4,1.0169072E1,-9.127758E3,1.35814E2,9.475749E3,3.7038289E3,-4.0618164E4,2.499086E4,-3.7019548E3,1.6537405E3,-7.3772227E3,6.5952766E4,1.6367199E4,-4.6830414E4,-2.3427031E4,9.785611E4,3.29807E4,6.099889E2,-8.4203125E3,-1.5604879E4,-6.157181E3,2.2271296E3,-5.1955312E3,2.371556E4,4.2974775E3,-3.0306053E4,7.570025E3,-3.3501914E4,-6.6076086E4,1.4983233E5,2.3841598E4,-7.936613E2,-4.3978703E4,1.5592476E3,7.605862E4,-3.2282305E4,2.2731262E3,8.6148586E4,3.5864793E4,2.0117611E4,2.0899922E3,-4.6554086E2,-3.3148586E4,7.2510516E4,-2.549539E4,-1.9208282E3,1.6803804E3,7.520527E2,-1.3207706E4,-1.1984825E4,-3.0487867E4,3.1404283E4,-7.0444927E3,4.597985E2,1.7767074E4,-8.0969336E3,2.5321084E3,7.2489844E3,8.800856E4,-2.47225E3,1.5643132E4,-5.1600366E3,-3.2053445E4,5.5508848E4,9.358694E2,-4.756857E4,-4.142058E3,4.522132E4,2.1789615E4,-3.9349436E3,2.633204E4,-4.7614043E4,5.0658332E4,1.1889626E4,9.208771E2,-5.5380832E4,9.641799E4,-5.8132547E4,-7.4382227E2,1.9834781E4,-7.1257886E3,3.0490924E4,1.7883232E4,5.913747E3,-2.6647541E4,-1.765996E4,1.553396E4,-3.7459184E4,-1.8006893E4,-1.2603893E4,-5.7867938E4],"categories":[],"categories_nodes":[],"categories_segments":[],"categories_sizes":[],"default_left":[true,true,true,true,true,true,true,true,true,true,true,true,true,true,true,true,true,true,true,true,true,true,true,true,true,true,true,false,true,false,true,true,true,true,true,true,true,true,true,true,true,true,false,false,true,true,true,true,true,true,true,false,false,true,true,true,true,false,true,false,false,false,false,false,false,false,false,false,false,false,false,false,false,false,false,false,false,false,false,false,false,false,false,false,false,false,false,false,false,false,false,false,false,false,false,false,false,false,false,false,false,false,false,false,false],"id":10,"left_children":[1,3,5,7,9,11,13,15,17,19,21,23,25,27,29,31,33,35,37,39,41,43,45,47,49,51,53,-1,55,-1,57,59,61,63,65,67,69,71,73,75,77,79,-1,-1,81,83,85,87,89,91,93,-1,-1,95,97,99,101,-1,103,-1,-1,-1,-1,-1,-1,-1,-1,-1,-1,-1,-1,-1,-1,-1,-1,-1,-1,-1,-1,-1,-1,-1,-1,-1,-1,-1,-1,-1,-1,-1,-1,-1,-1,-1,-1,-1,-1,-1,-1,-1,-1,-1,-1,-1,-1],"loss_changes":[3.722009E10,1.2606901E11,7.867011E10,6.8685533E10,1.8984142E11,1.5946596E11,1.6614505E11,1.8613808E11,2.6469366E11,6.159219E11,1.5964673E11,1.1812114E11,8.68789E10,1.806164E10,2.0395377E10,1.24548325E11,4.706309E10,2.3213354E11,2.6181406E11,9.529587E10,9.815176E10,3.0861918E10,1.18273065E11,2.2172212E11,3.6491366E11,2.9115826E10,5.8479493E9,0E0,1.8735165E10,0E0,4.3456565E10,6.2293164E10,7.184951E10,4.1120055E10,5.628012E10,4.106919E11,1.3154206E11,1.0019373E12,2.0019767E11,3.08616E9,2.0666989E11,1.7945582E11,0E0,0E0,9.499754E9,8.0456155E10,2.580661E10,2.0781154E11,1.1238069E11,3.456344E11,1.8088259E11,0E0,0E0,1.4712013E9,2.794834E9,7.426985E9,3.1763907E9,0E0,2.6092836E9,0E0,0E0,0E0,0E0,0E0,0E0,0E0,0E0,0E0,0E0,0E0,0E0,0E0,0E0,0E0,0E0,0E0,0E0,0E0,0E0,0E0,0E0,0E0,0E0,0E0,0E0,0E0,0E0,0E0,0E0,0E0,0E0,0E0,0E0,0E0,0E0,0E0,0E0,0E0,0E0,0E0,0E0,0E0,0E0,0E0,0E0],"parents":[2147483647,0,0,1,1,2,2,3,3,4,4,5,5,6,6,7,7,8,8,9,9,10,10,11,11,12,12,13,13,14,14,15,15,16,16,17,17,18,18,19,19,20,20,21,21,22,22,23,23,24,24,25,25,26,26,28,28,30,30,31,31,32,32,33,33,34,34,35,35,36,36,37,37,38,38,39,39,40,40,41,41,44,44,45,45,46,46,47,47,48,48,49,49,50,50,53,53,54,54,55,55,56,56,58,58],"right_children":[2,4,6,8,10,12,14,16,18,20,22,24,26,28,30,32,34,36,38,40,42,44,46,48,50,52,54,-1,56,-1,58,60,62,64,66,68,70,72,74,76,78,80,-1,-1,82,84,86,88,90,92,94,-1,-1,96,98,100,102,-1,104,-1,-1,-1,-1,-1,-1,-1,-1,-1,-1,-1,-1,-1,-1,-1,-1,-1,-1,-1,-1,-1,-1,-1,-1,-1,-1,-1,-1,-1,-1,-1,-1,-1,-1,-1,-1,-1,-1,-1,-1,-1,-1,-1,-1,-1,-1],"split_conditions":[1.9995E3,1.9985E3,1.365E2,1.015E2,1.175E2,1.315E2,1.435E2,1.9885E3,1.9965E3,1.015E2,1.205E2,1.195E2,2.0005E3,1.39E2,1.445E2,9.25E1,9.15E1,1.9925E3,1.085E2,9.05E1,1.155E2,1.185E2,1.435E2,1.185E2,2.0005E3,1.335E2,2.0015E3,-2.3415207E4,1.415E2,4.8928055E4,4.5E0,1.9775E3,1.9815E3,9.05E1,1.9925E3,1.9915E3,1.405E2,1.035E2,1.225E2,2.5E0,9.95E1,1.065E2,-3.3038043E4,7.4916164E4,1.195E2,1.415E2,1.475E2,2.0005E3,2.001E3,4.5E0,1.255E2,4.3074293E4,1.7932396E4,1.325E2,1.325E2,2.0005E3,2.0005E3,3.6255258E4,1.47E2,-9.604141E2,8.401902E2,3.7602634E2,-6.603853E3,-5.9924126E3,-1.5243934E4,1.5702142E4,-3.5222463E3,2.2989925E2,8.883537E3,-4.0484668E3,1.2660542E3,3.6244922E3,4.400428E4,-1.236125E3,7.821566E3,-2.5800183E3,-1.6026723E4,2.7754424E4,4.679347E2,-2.3784285E4,-2.071029E3,2.261066E4,1.0894808E4,-1.9674718E3,1.316602E4,-2.3807021E4,2.5329166E4,5.944813E3,4.6043854E2,-2.7690416E4,4.8208996E4,-2.9066273E4,-3.7191113E2,9.917391E3,-3.5628943E3,1.5245462E4,8.941616E3,2.9568735E3,-1.33237705E4,-8.82998E3,7.76698E3,-1.8729592E4,-9.003446E3,-6.3019463E3,-2.8933969E4],"split_indices":[2,2,1,1,1,1,1,2,2,1,1,1,2,1,1,1,1,2,1,1,1,1,1,1,2,1,2,0,1,0,0,2,2,1,2,2,1,1,1,0,1,1,0,0,1,1,1,2,2,0,1,0,0,1,1,2,2,0,1,0,0,0,0,0,0,0,0,0,0,0,0,0,0,0,0,0,0,0,0,0,0,0,0,0,0,0,0,0,0,0,0,0,0,0,0,0,0,0,0,0,0,0,0,0,0],"split_type":[0,0,0,0,0,0,0,0,0,0,0,0,0,0,0,0,0,0,0,0,0,0,0,0,0,0,0,0,0,0,0,0,0,0,0,0,0,0,0,0,0,0,0,0,0,0,0,0,0,0,0,0,0,0,0,0,0,0,0,0,0,0,0,0,0,0,0,0,0,0,0,0,0,0,0,0,0,0,0,0,0,0,0,0,0,0,0,0,0,0,0,0,0,0,0,0,0,0,0,0,0,0,0,0,0],"sum_hessian":[8.7366E4,5.397E4,3.3396E4,5.1447E4,2.523E3,3.323E4,1.66E2,2.7078E4,2.4369E4,1.275E3,1.248E3,3.3069E4,1.61E2,1.42E2,2.4E1,2.4628E4,2.45E3,2.0818E4,3.551E3,7.22E2,5.53E2,2.39E2,1.009E3,3.1552E4,1.517E3,5.2E1,1.09E2,5.9E1,8.3E1,7E0,1.7E1,2.2993E4,1.635E3,7.69E2,1.681E3,1.4953E4,5.865E3,9.46E2,2.605E3,7.3E1,6.49E2,4.34E2,1.19E2,1E0,2.38E2,9.42E2,6.7E1,3.1513E4,3.9E1,4.23E2,1.094E3,3E1,2.2E1,8.6E1,2.3E1,2.5E1,5.8E1,1E1,7E0,6.834E3,1.6159E4,5.61E2,1.074E3,6.2E2,1.49E2,3.8E1,1.643E3,1.3427E4,1.526E3,4.264E3,1.601E3,7.54E2,1.92E2,1.632E3,9.73E2,5E0,6.8E1,7.8E1,5.71E2,2.93E2,1.41E2,1.9E1,2.19E2,8.45E2,9.7E1,6.5E1,2E0,1.833E3,2.968E4,5E0,3.4E1,2.32E2,1.91E2,3.81E2,7.13E2,1.3E1,7.3E1,2.1E1,2E0,1.2E1,1.3E1,4.4E1,1.4E1,6E0,1E0],"tree_param":{"num_deleted":"0","num_feature":"3","num_nodes":"105","size_leaf_vector":"0"}},{"base_weights":[2.2927126E2,4.6476892E2,-2.4392805E3,3.7806485E2,1.1053656E4,-8.742302E3,1.5185867E3,-2.4564471E2,1.128435E3,3.2673203E4,-3.37585E2,2.3812625E4,-1.1644119E4,2.3924275E4,-4.952207E2,2.6376016E2,-3.3063855E3,-4.1345156E3,1.4988497E3,1.9841238E4,1.4450866E5,-6.139524E4,6.6413096E3,4.6314496E4,-1.2153709E4,-4.4535145E4,-6.748772E3,-5.1541242E4,3.2235492E4,4.08473E4,-1.7640535E3,-1.0688027E2,9.026427E3,-8.397618E3,4.5106733E3,-3.783679E2,-3.5948027E4,9.442968E3,1.0886469E3,5.0549082E4,1.4534487E3,1.5235448E5,-1.404975E4,-4.0344523E4,-7.578E4,3.6542445E4,-4.555348E3,3.774078E4,1.3319347E5,6.323665E3,-7.0526586E4,-3.1968672E4,-6.0108504E4,-1.0844052E3,-2.624949E4,-8.5789555E4,-4.3249914E4,4.1091418E4,-1.4878027E4,9.786659E4,2.9034969E4,5.3390986E3,-3.7066353E3,6.994254E2,-7.869517E3,1.5629109E3,2.1869992E4,1.8527316E4,-9.639238E3,2.1018188E4,-5.563938E3,-1.1558086E4,3.4424302E3,-3.923344E4,5.6752332E4,1.1442624E4,-5.7062065E3,4.9928213E3,5.9044257E2,-2.5815746E4,7.645693E4,-4.2811094E3,3.263412E4,-7.747502E4,-1.754975E4,7.924423E4,2.220759E4,-1.5194203E4,1.5782214E4,-2.0851783E4,4.4036105E4,5.1649223E4,-6.975837E2,-9.215406E4,-4.662647E4,-2.569497E4,-3.674565E4,-6.1861145E4,9.5259625E4,5.9457173E3,-7.36009E3,-7.144574E4,-1.0327929E4,5.1809688E3,4.469053E4,-4.771694E4,2.4356428E3,3.4327062E4,8.711778E3,7.583233E4,2.2444778E3,-2.9112213E4,-1.1839937E3],"categories":[],"categories_nodes":[],"categories_segments":[],"categories_sizes":[],"default_left":[true,true,true,true,true,true,true,true,true,true,true,true,true,true,true,true,true,true,true,true,true,true,true,true,true,true,true,true,true,true,true,true,true,true,true,true,true,true,true,true,true,false,false,false,true,true,true,true,false,true,true,true,true,true,true,false,false,true,true,false,true,true,true,false,false,false,false,false,false,false,false,false,false,false,false,false,false,false,false,false,false,false,false,false,false,false,false,false,false,false,false,false,false,false,false,false,false,false,false,false,false,false,false,false,false,false,false,false,false,false,false,false,false],"id":11,"left_children":[1,3,5,7,9,11,13,15,17,19,21,23,25,27,29,31,33,35,37,39,41,43,45,47,49,51,53,55,57,59,61,63,65,67,69,71,73,75,77,79,81,-1,-1,-1,83,85,87,89,-1,91,93,95,97,99,101,-1,-1,103,105,-1,107,109,111,-1,-1,-1,-1,-1,-1,-1,-1,-1,-1,-1,-1,-1,-1,-1,-1,-1,-1,-1,-1,-1,-1,-1,-1,-1,-1,-1,-1,-1,-1,-1,-1,-1,-1,-1,-1,-1,-1,-1,-1,-1,-1,-1,-1,-1,-1,-1,-1,-1,-1],"loss_changes":[5.490585E10,7.370364E10,1.7675937E11,3.726909E10,1.6058134E11,2.5845955E11,1.9642243E11,6.7803906E10,7.04719E10,3.2002313E11,1.8278493E11,1.8184828E11,4.0384207E11,2.2682994E11,2.0963677E11,1.2108864E11,2.4698736E11,2.8402903E11,1.1003604E11,1.1455035E11,3.075303E10,1.0266313E10,1.2906169E11,9.7766015E10,9.428222E10,6.168163E10,2.414354E11,6.5123123E9,1.3579511E11,7.730859E10,5.3516403E10,2.2389827E11,1.449992E11,1.2581057E11,4.0723595E11,9.089555E10,7.867089E10,5.0291327E10,6.2459286E10,1.523359E11,2.3027053E10,0E0,0E0,0E0,1.1078697E9,6.2513185E10,6.103931E10,4.7763374E10,0E0,2.1358246E10,6.5580646E9,4.5102367E9,4.5104726E10,7.482517E10,3.533027E11,0E0,0E0,3.5052552E10,2.9681455E10,0E0,1.045617E10,1.8154861E11,1.9511706E11,0E0,0E0,0E0,0E0,0E0,0E0,0E0,0E0,0E0,0E0,0E0,0E0,0E0,0E0,0E0,0E0,0E0,0E0,0E0,0E0,0E0,0E0,0E0,0E0,0E0,0E0,0E0,0E0,0E0,0E0,0E0,0E0,0E0,0E0,0E0,0E0,0E0,0E0,0E0,0E0,0E0,0E0,0E0,0E0,0E0,0E0,0E0,0E0,0E0,0E0],"parents":[2147483647,0,0,1,1,2,2,3,3,4,4,5,5,6,6,7,7,8,8,9,9,10,10,11,11,12,12,13,13,14,14,15,15,16,16,17,17,18,18,19,19,20,20,21,21,22,22,23,23,24,24,25,25,26,26,27,27,28,28,29,29,30,30,31,31,32,32,33,33,34,34,35,35,36,36,37,37,38,38,39,39,40,40,44,44,45,45,46,46,47,47,49,49,50,50,51,51,52,52,53,53,54,54,57,57,58,58,60,60,61,61,62,62],"right_children":[2,4,6,8,10,12,14,16,18,20,22,24,26,28,30,32,34,36,38,40,42,44,46,48,50,52,54,56,58,60,62,64,66,68,70,72,74,76,78,80,82,-1,-1,-1,84,86,88,90,-1,92,94,96,98,100,102,-1,-1,104,106,-1,108,110,112,-1,-1,-1,-1,-1,-1,-1,-1,-1,-1,-1,-1,-1,-1,-1,-1,-1,-1,-1,-1,-1,-1,-1,-1,-1,-1,-1,-1,-1,-1,-1,-1,-1,-1,-1,-1,-1,-1,-1,-1,-1,-1,-1,-1,-1,-1,-1,-1,-1,-1],"split_conditions":[1.325E2,1.305E2,1.9885E3,9.45E1,1.9885E3,1.9835E3,1.9895E3,9.25E1,1.9825E3,1.9875E3,1.991E3,1.405E2,1.365E2,1.445E2,1.335E2,2.0155E3,2.0145E3,1.9815E3,1.9845E3,1.315E2,1.315E2,1.315E2,1.9955E3,1.395E2,1.9805E3,1.9845E3,1.9875E3,1.415E2,1.505E2,1.9925E3,1.405E2,2.0145E3,9.1E1,1.9815E3,2.0155E3,1.145E2,1.265E2,1.195E2,1.005E2,1.9835E3,1.9855E3,7.617724E4,-7.024875E3,-2.0172262E4,1.9895E3,1.315E2,1.315E2,1.9775E3,6.6596734E4,1.475E2,1.9815E3,1.335E2,5E0,1.475E2,1.455E2,-4.2894777E4,-2.1624957E4,1.455E2,1.525E2,4.8933297E4,2.0005E3,1.9925E3,1.415E2,3.497127E2,-3.9347585E3,7.8145544E2,1.0934996E4,9.263658E3,-4.819619E3,1.0509094E4,-2.781969E3,-5.779043E3,1.7212151E3,-1.961672E4,2.8376166E4,5.721312E3,-2.8531033E3,2.4964106E3,2.9522128E2,-1.2907873E4,3.8228465E4,-2.1405547E3,1.631706E4,-3.873751E4,-8.774875E3,3.9622113E4,1.1103795E4,-7.5971016E3,7.891107E3,-1.0425892E4,2.2018053E4,2.5824611E4,-3.4879184E2,-4.607703E4,-2.3313234E4,-1.2847485E4,-1.8372824E4,-3.0930572E4,4.7629812E4,2.9728586E3,-3.680045E3,-3.572287E4,-5.1639644E3,2.5904844E3,2.2345266E4,-2.385847E4,1.2178214E3,1.7163531E4,4.355889E3,3.7916164E4,1.1222389E3,-1.4556106E4,-5.919968E2],"split_indices":[1,1,2,1,2,2,2,1,2,2,2,1,1,1,1,2,2,2,2,1,1,1,2,1,2,2,2,1,1,2,1,2,1,2,2,1,1,1,1,2,2,0,0,0,2,1,1,2,0,1,2,1,0,1,1,0,0,1,1,0,2,2,1,0,0,0,0,0,0,0,0,0,0,0,0,0,0,0,0,0,0,0,0,0,0,0,0,0,0,0,0,0,0,0,0,0,0,0,0,0,0,0,0,0,0,0,0,0,0,0,0,0,0],"split_type":[0,0,0,0,0,0,0,0,0,0,0,0,0,0,0,0,0,0,0,0,0,0,0,0,0,0,0,0,0,0,0,0,0,0,0,0,0,0,0,0,0,0,0,0,0,0,0,0,0,0,0,0,0,0,0,0,0,0,0,0,0,0,0,0,0,0,0,0,0,0,0,0,0,0,0,0,0,0,0,0,0,0,0,0,0,0,0,0,0,0,0,0,0,0,0,0,0,0,0,0,0,0,0,0,0,0,0,0,0,0,0,0,0],"sum_hessian":[8.7366E4,8.0282E4,7.084E3,7.9631E4,6.51E2,2.732E3,4.352E3,4.3486E4,3.6145E4,2.24E2,4.27E2,2.23E2,2.509E3,3.58E2,3.994E3,3.7282E4,6.204E3,2.376E3,3.3769E4,2.02E2,2.2E1,4.3E1,3.84E2,1.37E2,8.6E1,3.24E2,2.185E3,3.5E1,3.23E2,1.18E2,3.876E3,3.577E4,1.512E3,3.757E3,2.447E3,2.126E3,2.5E2,1.657E3,3.2112E4,7.5E1,1.27E2,2.1E1,1E0,1.9E1,2.4E1,1.04E2,2.8E2,1.26E2,1.1E1,6.6E1,2E1,1.81E2,1.43E2,1.694E3,4.91E2,5E0,3E1,2.72E2,5.1E1,1.9E1,9.9E1,8.32E2,3.044E3,3.2405E4,3.365E3,9.57E2,5.55E2,1.65E2,3.592E3,9.27E2,1.52E3,5.41E2,1.585E3,2.42E2,8E0,1.464E3,1.93E2,3.633E3,2.8479E4,1.9E1,5.6E1,1.08E2,1.9E1,2.3E1,1E0,2.5E1,7.9E1,1.84E2,9.6E1,1.2E1,1.14E2,8E0,5.8E1,9E0,1.1E1,8.1E1,1E2,1.42E2,1E0,7.99E2,8.95E2,1.27E2,3.64E2,2.5E1,2.47E2,1.7E1,3.4E1,7.8E1,2.1E1,3.4E1,7.98E2,2.74E2,2.77E3],"tree_param":{"num_deleted":"0","num_feature":"3","num_nodes":"113","size_leaf_vector":"0"}},{"base_weights":[1.1615431E2,4.9905834E1,7.3578364E3,1.8051599E2,-6.108631E3,6.3951934E3,6.0396492E4,8.6543884E1,5.5395044E3,-9.591315E3,8.378478E3,3.162173E4,4.510031E3,-4.7155375E4,7.229705E4,1.9816827E2,-6.0733296E3,8.353632E3,-1.5738732E4,-4.2346533E3,-3.186072E4,3.7864938E4,-2.2536463E4,-6.5198623E3,3.4803453E4,2.9111187E3,2.2536523E4,7.817034E4,2.6662625E4,-4.536424E2,8.0717554E2,2.1752256E4,-9.644774E3,4.230615E3,4.96886E4,1.5859989E4,-5.1880527E4,-1.068326E4,2.9864798E2,-2.0501656E4,-3.812052E4,4.65452E4,-2.303357E4,-3.4388176E4,9.463551E3,-1.0355844E4,4.4120312E3,6.251064E4,2.44088E4,4.3479805E3,-3.273554E4,1.805407E4,5.912252E4,2.6423624E2,-1.03404E4,6.16915E2,1.8827154E4,3.427623E4,-3.4575986E3,-3.816769E4,-1.321957E3,-9.727165E1,1.0238835E4,6.564171E4,4.4173316E4,-3.8819988E3,3.6565664E4,-4.5121875E4,-9.017372E4,1.6527332E4,-2.4213357E4,-7.7533457E3,1.7348576E4,-2.4385887E4,-9.883216E3,-4.1096145E4,-2.1872531E4,4.209622E4,7.335306E4,-3.6987969E3,-4.044888E4,4.2789168E4,-3.7960477E4,1.5709116E4,-4.6141023E4,-3.548125E3,-1.53895E4,4.2076453E4,1.5386044E5,-1.5497375E4,4.342309E4,5.4939793E4,3.3804966E3,-9.564861E4,-1.6949133E4,2.277762E4,-6.983881E4,6.7216414E4,9.326531E3],"categories":[],"categories_nodes":[],"categories_segments":[],"categories_sizes":[],"default_left":[true,true,true,true,true,true,true,true,true,true,true,true,true,false,true,true,true,true,true,true,true,true,true,true,true,true,true,false,false,true,true,true,true,true,true,true,true,true,true,true,true,true,true,true,true,true,false,true,true,true,true,true,true,false,false,false,false,false,false,false,false,false,false,false,false,false,false,false,false,false,false,false,false,false,false,false,false,false,false,false,false,false,false,false,false,false,false,false,false,false,false,false,false,false,false,false,false,false,false],"id":12,"left_children":[1,3,5,7,9,11,13,15,17,19,21,23,25,-1,27,29,31,33,35,37,39,41,43,45,47,49,51,-1,-1,53,55,57,59,61,63,65,67,69,71,73,75,77,79,81,83,85,-1,87,89,91,93,95,97,-1,-1,-1,-1,-1,-1,-1,-1,-1,-1,-1,-1,-1,-1,-1,-1,-1,-1,-1,-1,-1,-1,-1,-1,-1,-1,-1,-1,-1,-1,-1,-1,-1,-1,-1,-1,-1,-1,-1,-1,-1,-1,-1,-1,-1,-1],"loss_changes":[4.191399E10,6.964003E10,4.0051134E10,4.2693845E10,9.07967E10,3.6903612E10,2.1328175E10,5.7290695E10,8.7615685E10,1.7283511E11,3.1899202E11,6.7801416E9,2.0859728E10,0E0,1.4000906E9,3.2486173E10,1.475867E11,2.1980817E11,1.9611073E11,3.4206353E10,1.9199099E10,9.569416E10,6.5178034E10,2.5536298E8,1.2874519E10,3.435683E10,8.608307E9,0E0,0E0,2.805666E11,1.4504098E11,5.3476483E10,3.1211877E11,3.0554399E10,7.394722E9,3.77489E10,1.6636019E10,1.7822243E11,9.4587216E10,3.9659233E9,7.8037484E9,1.5637119E10,7.594972E9,3.6086874E10,1.7047089E10,8.246701E7,0E0,1.7792668E10,2.950687E10,3.1287038E10,2.4201292E10,2.4009744E10,1.7913631E9,0E0,0E0,0E0,0E0,0E0,0E0,0E0,0E0,0E0,0E0,0E0,0E0,0E0,0E0,0E0,0E0,0E0,0E0,0E0,0E0,0E0,0E0,0E0,0E0,0E0,0E0,0E0,0E0,0E0,0E0,0E0,0E0,0E0,0E0,0E0,0E0,0E0,0E0,0E0,0E0,0E0,0E0,0E0,0E0,0E0,0E0],"parents":[2147483647,0,0,1,1,2,2,3,3,4,4,5,5,6,6,7,7,8,8,9,9,10,10,11,11,12,12,14,14,15,15,16,16,17,17,18,18,19,19,20,20,21,21,22,22,23,23,24,24,25,25,26,26,29,29,30,30,31,31,32,32,33,33,34,34,35,35,36,36,37,37,38,38,39,39,40,40,41,41,42,42,43,43,44,44,45,45,47,47,48,48,49,49,50,50,51,51,52,52],"right_children":[2,4,6,8,10,12,14,16,18,20,22,24,26,-1,28,30,32,34,36,38,40,42,44,46,48,50,52,-1,-1,54,56,58,60,62,64,66,68,70,72,74,76,78,80,82,84,86,-1,88,90,92,94,96,98,-1,-1,-1,-1,-1,-1,-1,-1,-1,-1,-1,-1,-1,-1,-1,-1,-1,-1,-1,-1,-1,-1,-1,-1,-1,-1,-1,-1,-1,-1,-1,-1,-1,-1,-1,-1,-1,-1,-1,-1,-1,-1,-1,-1,-1,-1],"split_conditions":[1.525E2,1.465E2,1.9965E3,1.445E2,1.9945E3,1.535E2,1.615E2,1.405E2,1.9955E3,1.9925E3,1.9955E3,4.5E0,1.88E2,-2.3577688E4,1.985E2,1.9955E3,1.9865E3,1.9935E3,1.455E2,1.485E2,1.475E2,1.505E2,1.485E2,1.9825E3,1.9875E3,1.8E2,2.295E2,3.908517E4,1.33313125E4,1.9925E3,1.355E2,1.425E2,1.9925E3,1.9885E3,1.9945E3,1.9965E3,1.9965E3,1.9855E3,1.9865E3,1.9935E3,1.9935E3,1.495E2,1.515E2,4.5E0,1.505E2,1.978E3,2.2060156E3,1.9865E3,1.9925E3,4.5E0,1.987E3,2.125E2,2.46E2,1.3211812E2,-5.1702E3,3.084575E2,9.413577E3,1.7138115E4,-1.7287993E3,-1.9083846E4,-6.609785E2,-4.8635826E1,5.1194175E3,3.2820855E4,2.2086658E4,-1.9409994E3,1.8282832E4,-2.2560938E4,-4.508686E4,8.263666E3,-1.2106679E4,-3.8766729E3,8.674288E3,-1.2192943E4,-4.941608E3,-2.0548072E4,-1.0936266E4,2.104811E4,3.667653E4,-1.8493984E3,-2.022444E4,2.1394584E4,-1.8980238E4,7.854558E3,-2.3070512E4,-1.7740625E3,-7.69475E3,2.1038227E4,7.693022E4,-7.7486875E3,2.1711545E4,2.7469896E4,1.6902483E3,-4.7824305E4,-8.474566E3,1.138881E4,-3.4919406E4,3.3608207E4,4.6632656E3],"split_indices":[1,1,2,1,2,1,1,1,2,2,2,0,1,0,1,2,2,2,1,1,1,1,1,2,2,1,1,0,0,2,1,1,2,2,2,2,2,2,2,2,2,1,1,0,1,2,0,2,2,0,2,1,1,0,0,0,0,0,0,0,0,0,0,0,0,0,0,0,0,0,0,0,0,0,0,0,0,0,0,0,0,0,0,0,0,0,0,0,0,0,0,0,0,0,0,0,0,0,0],"split_type":[0,0,0,0,0,0,0,0,0,0,0,0,0,0,0,0,0,0,0,0,0,0,0,0,0,0,0,0,0,0,0,0,0,0,0,0,0,0,0,0,0,0,0,0,0,0,0,0,0,0,0,0,0,0,0,0,0,0,0,0,0,0,0,0,0,0,0,0,0,0,0,0,0,0,0,0,0,0,0,0,0,0,0,0,0,0,0,0,0,0,0,0,0,0,0,0,0,0,0],"sum_hessian":[8.7366E4,8.6575E4,7.91E2,8.4778E4,1.797E3,7.78E2,1.3E1,8.3318E4,1.46E3,1.449E3,3.48E2,5.3E1,7.25E2,1E0,1.2E1,8.1836E4,1.482E3,1.29E3,1.7E2,1.169E3,2.8E2,1.78E2,1.7E2,4E0,4.9E1,6.67E2,5.8E1,1E1,2E0,3.9529E4,4.2307E4,1.68E2,1.314E3,1.174E3,1.16E2,9.1E1,7.9E1,4.82E2,6.87E2,1.01E2,1.79E2,1.56E2,2.2E1,1.24E2,4.6E1,3E0,1E0,1.2E1,3.7E1,6.42E2,2.5E1,5.3E1,5E0,3.6854E4,2.675E3,4.1866E4,4.41E2,1.12E2,5.6E1,2.96E2,1.018E3,6.83E2,4.91E2,2.7E1,8.9E1,4.7E1,4.4E1,6.9E1,1E1,1.6E2,3.22E2,4.67E2,2.2E2,7.3E1,2.8E1,1.5E2,2.9E1,1.36E2,2E1,1.1E1,1.1E1,5E0,1.19E2,4.2E1,4E0,2E0,1E0,1.1E1,1E0,1.2E1,2.5E1,1.1E1,6.31E2,4E0,2.1E1,5.1E1,2E0,4E0,1E0],"tree_param":{"num_deleted":"0","num_feature":"3","num_nodes":"99","size_leaf_vector":"0"}},{"base_weights":[5.9277817E1,-3.2829382E2,7.0130054E2,1.7506554E3,-5.257571E2,3.310913E3,-1.1906127E2,-6.0864834E3,5.8325654E3,-7.779886E3,-1.9032056E2,1.8624326E3,1.4705595E4,-7.115251E3,7.7659766E2,-3.3700981E3,-4.775856E4,2.8585202E2,2.484269E4,1.3728508E4,-1.0520947E4,3.4931104E3,-5.098241E2,2.8112832E3,-3.1519223E4,2.2404379E4,-1.5239719E4,1.8117752E4,-1.070406E4,-2.6335713E3,1.5990471E3,2.2970738E2,-2.421464E4,-3.1822129E4,-8.703229E4,1.2122406E3,-1.944544E4,3.839871E4,1.1483989E4,3.5110327E3,2.6819658E4,-5.8266484E3,-1.6457021E4,4.171613E3,-3.2682193E4,-1.2767098E3,3.8855417E2,-3.427967E3,3.7061846E3,8.002659E4,1.7700432E4,-2.4158348E4,5.258596E3,2.829073E3,5.38608E4,-3.7396246E4,-4.0021467E3,1.2189867E3,-1.165667E4,5.277663E3,-5.2509534E2,-2.1663271E3,2.3768834E4,-3.0213535E3,-2.9825166E4,-3.879895E4,-2.4923822E4,-4.4561606E2,3.8074746E4,-1.3654567E5,-3.3855605E3,-2.7076176E4,4.1635684E4,-3.999616E4,1.8333295E4,1.413209E4,1.2115673E3,-1.4639375E3,3.0333752E4,-8.776686E3,2.5555945E4,-9.121867E3,-2.914233E4,-1.328243E4,5.7256035E3,-2.2116184E4,-5.4730023E4,9.975135E1,-2.9561985E3,-2.2145532E2,3.726133E4,6.1855503E3,-3.4193277E4,4.499916E3,-4.1867954E3,-9.4512414E4,8.8724445E4,4.2977492E4,6.946676E3,-6.7802524E3,-5.261854E4,5.2943117E4,-8.949525E3,3.951005E4,-1.4133654E4,6.097352E4,2.7648325E3,-2.9699896E4,-4.506594E4,-7.860853E3,1.4408212E4,-7.8888945E4,1.4844564E3,-1.8836223E4,2.2016132E2,4.3122207E4,1.4356267E3,-1.1055358E4,1.4057458E3],"categories":[],"categories_nodes":[],"categories_segments":[],"categories_sizes":[],"default_left":[true,true,true,true,true,true,true,true,true,true,true,true,true,true,true,true,true,true,true,true,true,true,true,true,false,true,true,true,true,true,true,true,true,true,false,true,true,true,true,true,true,true,true,true,true,true,true,true,true,true,true,true,true,true,true,true,true,true,true,true,true,false,false,false,false,false,false,false,false,false,false,false,false,false,false,false,false,false,false,false,false,false,false,false,false,false,false,false,false,false,false,false,false,false,false,false,false,false,false,false,false,false,false,false,false,false,false,false,false,false,false,false,false,false,false,false,false,false,false],"id":13,"left_children":[1,3,5,7,9,11,13,15,17,19,21,23,25,27,29,31,33,35,37,39,41,43,45,47,-1,49,51,53,55,57,59,61,63,65,-1,67,69,71,73,75,77,79,81,83,85,87,89,91,93,95,97,99,101,103,105,107,109,111,113,115,117,-1,-1,-1,-1,-1,-1,-1,-1,-1,-1,-1,-1,-1,-1,-1,-1,-1,-1,-1,-1,-1,-1,-1,-1,-1,-1,-1,-1,-1,-1,-1,-1,-1,-1,-1,-1,-1,-1,-1,-1,-1,-1,-1,-1,-1,-1,-1,-1,-1,-1,-1,-1,-1,-1,-1,-1,-1,-1],"loss_changes":[2.1739743E10,2.236584E10,7.04079E10,1.5122258E11,1.21067364E11,1.2980073E11,1.5680464E11,1.8310565E11,3.2771195E11,1.297883E11,5.597015E10,2.2117453E11,2.0483262E11,2.573742E11,6.222349E10,1.1413578E11,5.9192885E10,4.402075E10,1.2668482E11,3.3211703E10,5.42701E10,9.3309256E10,3.015048E10,3.791359E10,0E0,1.899461E11,3.339971E10,1.932959E11,4.4474656E11,1.4987323E11,1.3966849E11,7.325941E10,2.6544726E10,2.498216E9,0E0,1.405763E11,2.0264418E11,7.488261E10,1.2590745E11,3.4264863E9,1.0878042E10,1.0122888E11,7.984908E10,1.0116506E11,1.5096611E10,5.457842E10,4.5332696E11,2.5220145E11,3.7213594E10,8.884565E10,1.7747391E11,6.24554E10,3.8414234E10,1.5548855E11,3.8355108E10,2.8116845E10,1.4141216E11,6.4383656E10,1.10002864E11,9.5129095E11,2.3042076E11,0E0,0E0,0E0,0E0,0E0,0E0,0E0,0E0,0E0,0E0,0E0,0E0,0E0,0E0,0E0,0E0,0E0,0E0,0E0,0E0,0E0,0E0,0E0,0E0,0E0,0E0,0E0,0E0,0E0,0E0,0E0,0E0,0E0,0E0,0E0,0E0,0E0,0E0,0E0,0E0,0E0,0E0,0E0,0E0,0E0,0E0,0E0,0E0,0E0,0E0,0E0,0E0,0E0,0E0,0E0,0E0,0E0,0E0],"parents":[2147483647,0,0,1,1,2,2,3,3,4,4,5,5,6,6,7,7,8,8,9,9,10,10,11,11,12,12,13,13,14,14,15,15,16,16,17,17,18,18,19,19,20,20,21,21,22,22,23,23,25,25,26,26,27,27,28,28,29,29,30,30,31,31,32,32,33,33,35,35,36,36,37,37,38,38,39,39,40,40,41,41,42,42,43,43,44,44,45,45,46,46,47,47,48,48,49,49,50,50,51,51,52,52,53,53,54,54,55,55,56,56,57,57,58,58,59,59,60,60],"right_children":[2,4,6,8,10,12,14,16,18,20,22,24,26,28,30,32,34,36,38,40,42,44,46,48,-1,50,52,54,56,58,60,62,64,66,-1,68,70,72,74,76,78,80,82,84,86,88,90,92,94,96,98,100,102,104,106,108,110,112,114,116,118,-1,-1,-1,-1,-1,-1,-1,-1,-1,-1,-1,-1,-1,-1,-1,-1,-1,-1,-1,-1,-1,-1,-1,-1,-1,-1,-1,-1,-1,-1,-1,-1,-1,-1,-1,-1,-1,-1,-1,-1,-1,-1,-1,-1,-1,-1,-1,-1,-1,-1,-1,-1,-1,-1,-1,-1,-1,-1],"split_conditions":[1.045E2,1.9755E3,1.105E2,6.15E1,1.9775E3,2.0055E3,1.125E2,6.015E1,1.9745E3,5.95E1,1.9795E3,2.0045E3,2.013E3,2.0005E3,1.9855E3,1.9745E3,1.9735E3,8.95E1,6.65E1,1.9765E3,1.9765E3,9.85E1,2.0005E3,1.9885E3,-1.5759611E4,1.065E2,2.0155E3,1.9985E3,2.0025E3,1.9845E3,1.215E2,1.9735E3,1.5E0,6.065E1,-4.3516145E4,8.75E1,9.05E1,6.4E1,7.25E1,4.95E1,1.5E0,9.05E1,8.3E1,5.95E1,1.025E2,1.9865E3,9.95E1,1.9865E3,2.0035E3,2.0095E3,2.007E3,1.065E2,1.095E2,1.9895E3,1.115E2,2.0015E3,2.0155E3,1.135E2,4.5E0,1.9885E3,1.225E2,-1.0831636E3,1.1884417E4,-1.5106768E3,-1.4912583E4,-1.9399475E4,-1.2461911E4,-2.2280803E2,1.9037373E4,-6.8272836E4,-1.6927803E3,-1.3538088E4,2.0817842E4,-1.999808E4,9.166647E3,7.066045E3,6.057836E2,-7.3196875E2,1.5166876E4,-4.388343E3,1.2777973E4,-4.5609336E3,-1.4571165E4,-6.641215E3,2.8628018E3,-1.1058092E4,-2.7365012E4,4.9875675E1,-1.4780992E3,-1.1072766E2,1.8630664E4,3.0927751E3,-1.7096639E4,2.249958E3,-2.0933977E3,-4.7256207E4,4.4362223E4,2.1488746E4,3.473338E3,-3.3901262E3,-2.630927E4,2.6471559E4,-4.4747627E3,1.9755025E4,-7.066827E3,3.048676E4,1.3824163E3,-1.4849948E4,-2.253297E4,-3.9304265E3,7.204106E3,-3.9444473E4,7.422282E2,-9.418111E3,1.1008066E2,2.1561104E4,7.1781335E2,-5.527679E3,7.028729E2],"split_indices":[1,2,1,1,2,2,1,1,2,1,2,2,2,2,2,2,2,1,1,2,2,1,2,2,0,1,2,2,2,2,1,2,0,1,0,1,1,1,1,1,0,1,1,1,1,2,1,2,2,2,2,1,1,2,1,2,2,1,0,2,1,0,0,0,0,0,0,0,0,0,0,0,0,0,0,0,0,0,0,0,0,0,0,0,0,0,0,0,0,0,0,0,0,0,0,0,0,0,0,0,0,0,0,0,0,0,0,0,0,0,0,0,0,0,0,0,0,0,0],"split_type":[0,0,0,0,0,0,0,0,0,0,0,0,0,0,0,0,0,0,0,0,0,0,0,0,0,0,0,0,0,0,0,0,0,0,0,0,0,0,0,0,0,0,0,0,0,0,0,0,0,0,0,0,0,0,0,0,0,0,0,0,0,0,0,0,0,0,0,0,0,0,0,0,0,0,0,0,0,0,0,0,0,0,0,0,0,0,0,0,0,0,0,0,0,0,0,0,0,0,0,0,0,0,0,0,0,0,0,0,0,0,0,0,0,0,0,0,0,0,0],"sum_hessian":[8.7366E4,5.4479E4,3.2887E4,4.725E3,4.9754E4,7.865E3,2.5022E4,1.618E3,3.107E3,2.198E3,4.7556E4,6.979E3,8.86E2,2.839E3,2.2183E4,1.52E3,9.8E1,2.406E3,7.01E2,2.48E2,1.95E3,3.795E3,4.3761E4,6.787E3,1.92E2,7.05E2,1.81E2,3.53E2,2.486E3,4.31E3,1.7873E4,1.297E3,2.23E2,7.1E1,2.7E1,2.299E3,1.07E2,3.47E2,3.54E2,1.4E2,1.08E2,1.09E3,8.6E2,3.726E3,6.9E1,2.3608E4,2.0153E4,8.51E2,5.936E3,5.2E1,6.53E2,1.26E2,5.5E1,2.48E2,1.05E2,4.98E2,1.988E3,3.021E3,1.289E3,6.542E3,1.1331E4,1.178E3,1.19E2,4.7E1,1.76E2,3.3E1,3.8E1,2.201E3,9.8E1,1.2E1,9.5E1,1.6E1,3.31E2,4.1E1,3.13E2,2.4E1,1.16E2,1.2E1,9.6E1,9.97E2,9.3E1,5.46E2,3.14E2,3.04E2,3.422E3,4.8E1,2.1E1,1.2975E4,1.0633E4,1.9826E4,3.27E2,6.49E2,2.02E2,5.394E3,5.42E2,2E0,5E1,1.94E2,4.59E2,7.9E1,4.7E1,1.2E1,4.3E1,7.8E1,1.7E2,9.2E1,1.3E1,2.51E2,2.47E2,1.644E3,3.44E2,9E0,3.012E3,8.03E2,4.86E2,6.02E2,5.94E3,1.755E3,9.576E3],"tree_param":{"num_deleted":"0","num_feature":"3","num_nodes":"119","size_leaf_vector":"0"}},{"base_weights":[2.7521032E1,1.6712181E2,-1.62809E3,1.8625425E1,2.4654414E3,-1.7066275E4,-1.0037891E3,-8.745519E2,2.5380518E2,6.526023E3,-1.8210599E2,7.325369E4,-1.9811385E4,1.5386045E4,-1.4495255E3,7.5847266E2,-2.1501558E3,7.170846E3,1.4973587E2,6.2688258E4,6.082933E3,-1.1022999E4,1.8885037E3,1.3381953E5,4.5484348E4,-2.9200398E4,8.958614E3,1.0639073E5,6.7039307E3,-5.0232227E3,1.769978E2,-1.1808206E3,1.9290637E3,1.0445215E5,-2.1860288E3,2.5931438E3,2.5806896E4,4.8915492E4,1.3320396E2,-1.174255E5,9.94308E4,-1.246714E5,6.5589526E3,-1.340204E4,1.2952876E5,8.416573E3,-2.2560452E3,-2.0516555E4,-4.463466E4,6.845982E3,7.102722E4,1.5083902E5,-1.267365E4,-2.4341309E4,1.7697117E4,-1.2125962E4,-2.40811E3,1.0832155E3,-5.5314097E3,1.1881334E3,-2.492435E3,6.953043E2,1.3190555E4,-2.937475E3,6.962556E2,-8.381225E3,1.4964252E4,6.6318914E4,-1.3191331E4,-6.7037314E3,9.503156E4,6.474186E2,-9.285374E2,-1.3674125E4,-1.6246412E5,5.3018254E4,5.9645796E3,-7.843799E3,-4.2422637E4,1.7548633E4,-3.5471143E3,-4.629547E3,1.3365973E4,-2.7062021E4,5.6991685E3,-7.8255125E4,-1.8303445E4,1.7230414E4,2.309311E3,-8.49672E4,-1.5723656E4,3.6204766E4,-4.908332E3,-2.1173862E3,-1.8142748E4,-7.7166064E2,-1.5932566E4,-2.989317E2,7.519869E3,2.0922173E3,-1.3716242E4],"categories":[],"categories_nodes":[],"categories_segments":[],"categories_sizes":[],"default_left":[true,true,true,true,true,true,true,true,true,true,true,true,true,true,true,true,true,true,true,true,true,true,true,false,false,true,true,true,true,true,true,true,true,false,true,true,true,true,true,true,false,false,true,true,false,true,true,true,true,true,false,false,false,true,true,true,true,true,true,false,false,false,false,false,false,false,false,false,false,false,false,false,false,false,false,false,false,false,false,false,false,false,false,false,false,false,false,false,false,false,false,false,false,false,false,false,false,false,false,false,false],"id":14,"left_children":[1,3,5,7,9,11,13,15,17,19,21,23,25,27,29,31,33,35,37,39,41,43,45,-1,-1,47,49,51,53,55,57,59,61,-1,63,65,67,69,71,73,-1,-1,75,77,-1,79,81,83,85,87,-1,-1,-1,89,91,93,95,97,99,-1,-1,-1,-1,-1,-1,-1,-1,-1,-1,-1,-1,-1,-1,-1,-1,-1,-1,-1,-1,-1,-1,-1,-1,-1,-1,-1,-1,-1,-1,-1,-1,-1,-1,-1,-1,-1,-1,-1,-1,-1,-1],"loss_changes":[2.0192934E10,2.7499227E10,6.546393E10,1.5898403E10,5.2571537E10,6.6906964E10,4.7734817E10,3.2862413E10,4.3125957E10,4.7646523E10,6.648715E10,7.3682944E9,6.968293E10,1.3597633E11,3.696386E10,1.5709235E10,3.4098926E10,7.568862E10,4.757808E10,1.10943265E11,1.2007268E11,1.6056566E11,6.7307016E10,0E0,0E0,2.508582E10,7.9059497E9,8.129479E10,5.4695264E10,3.691541E10,2.2617436E10,8.0970977E9,5.9943313E10,0E0,1.9180933E10,9.70617E10,2.7735677E11,5.193586E10,3.2215144E10,1.1796902E10,0E0,0E0,5.2426818E10,7.515727E10,0E0,1.0560073E11,5.6495948E10,2.1775098E10,5.9651113E10,2.928187E9,0E0,0E0,0E0,2.0607025E10,4.954581E10,3.2178995E10,3.2189893E10,3.3568375E10,3.7405164E10,0E0,0E0,0E0,0E0,0E0,0E0,0E0,0E0,0E0,0E0,0E0,0E0,0E0,0E0,0E0,0E0,0E0,0E0,0E0,0E0,0E0,0E0,0E0,0E0,0E0,0E0,0E0,0E0,0E0,0E0,0E0,0E0,0E0,0E0,0E0,0E0,0E0,0E0,0E0,0E0,0E0,0E0],"parents":[2147483647,0,0,1,1,2,2,3,3,4,4,5,5,6,6,7,7,8,8,9,9,10,10,11,11,12,12,13,13,14,14,15,15,16,16,17,17,18,18,19,19,20,20,21,21,22,22,25,25,26,26,27,27,28,28,29,29,30,30,31,31,32,32,34,34,35,35,36,36,37,37,38,38,39,39,42,42,43,43,45,45,46,46,47,47,48,48,49,49,53,53,54,54,55,55,56,56,57,57,58,58],"right_children":[2,4,6,8,10,12,14,16,18,20,22,24,26,28,30,32,34,36,38,40,42,44,46,-1,-1,48,50,52,54,56,58,60,62,-1,64,66,68,70,72,74,-1,-1,76,78,-1,80,82,84,86,88,-1,-1,-1,90,92,94,96,98,100,-1,-1,-1,-1,-1,-1,-1,-1,-1,-1,-1,-1,-1,-1,-1,-1,-1,-1,-1,-1,-1,-1,-1,-1,-1,-1,-1,-1,-1,-1,-1,-1,-1,-1,-1,-1,-1,-1,-1,-1,-1,-1],"split_conditions":[1.335E2,1.225E2,1.345E2,6.85E1,1.255E2,1.9785E3,1.9835E3,6.55E1,7.05E1,1.9745E3,1.265E2,3.5E0,4.5E0,1.355E2,1.435E2,5.95E1,1.5E0,2.0125E3,1.9685E3,1.972E3,1.9755E3,2.0025E3,1.9935E3,6.6909766E4,2.2742174E4,1.9935E3,5.5E0,1.9825E3,1.9775E3,1.991E3,1.9955E3,1.9745E3,2.0035E3,5.2226074E4,2.0135E3,6.95E1,2.0135E3,1.9675E3,2.0035E3,3.5E0,4.97154E4,-6.23357E4,1.9765E3,4.5E0,6.476438E4,1.315E2,1.315E2,1.989E3,1.9955E3,2.0005E3,3.551361E4,7.541951E4,-6.336825E3,1.375E2,1.405E2,1.9845E3,1.9995E3,1.9935E3,1.455E2,5.940667E2,-1.2462175E3,3.4765216E2,6.5952773E3,-1.4687375E3,3.481278E2,-4.1906123E3,7.482126E3,3.3159457E4,-6.5956655E3,-3.3518657E3,4.751578E4,3.237093E2,-4.642687E2,-6.8370625E3,-8.123206E4,2.6509127E4,2.9822898E3,-3.9218994E3,-2.1211318E4,8.774316E3,-1.7735571E3,-2.3147734E3,6.6829863E3,-1.3531011E4,2.8495842E3,-3.9127562E4,-9.151723E3,8.615207E3,1.1546555E3,-4.24836E4,-7.861828E3,1.8102383E4,-2.454166E3,-1.0586931E3,-9.071374E3,-3.8583032E2,-7.966283E3,-1.4946585E2,3.7599346E3,1.0461086E3,-6.858121E3],"split_indices":[1,1,1,1,1,2,2,1,1,2,1,0,0,1,1,1,0,2,2,2,2,2,2,0,0,2,0,2,2,2,2,2,2,0,2,1,2,2,2,0,0,0,2,0,0,1,1,2,2,2,0,0,0,1,1,2,2,2,1,0,0,0,0,0,0,0,0,0,0,0,0,0,0,0,0,0,0,0,0,0,0,0,0,0,0,0,0,0,0,0,0,0,0,0,0,0,0,0,0,0,0],"split_type":[0,0,0,0,0,0,0,0,0,0,0,0,0,0,0,0,0,0,0,0,0,0,0,0,0,0,0,0,0,0,0,0,0,0,0,0,0,0,0,0,0,0,0,0,0,0,0,0,0,0,0,0,0,0,0,0,0,0,0,0,0,0,0,0,0,0,0,0,0,0,0,0,0,0,0,0,0,0,0,0,0,0,0,0,0,0,0,0,0,0,0,0,0,0,0,0,0,0,0,0,0],"sum_hessian":[8.7366E4,8.0573E4,6.793E3,7.5684E4,4.889E3,2.63E2,6.53E3,1.5774E4,5.991E4,1.929E3,2.96E3,7E0,2.56E2,1.72E2,6.358E3,6.918E3,8.856E3,8.87E2,5.9023E4,1.4E1,1.915E3,4.74E2,2.486E3,1E0,6E0,1.93E2,6.3E1,1.4E1,1.58E2,1.988E3,4.37E3,2.604E3,4.314E3,2E0,8.854E3,7.13E2,1.74E2,1.9E1,5.9004E4,2E0,1.2E1,6E0,1.909E3,4.67E2,7E0,9.65E2,1.521E3,1.25E2,6.8E1,6.2E1,1E0,1E1,4E0,4.1E1,1.17E2,5.34E2,1.454E3,3.772E3,5.98E2,9.28E2,1.676E3,3.889E3,4.25E2,7.023E3,1.831E3,3.78E2,3.35E2,8.5E1,8.9E1,9E0,1E1,3.9752E4,1.9252E4,1E0,1E0,2.3E1,1.886E3,3.93E2,7.4E1,5.47E2,4.18E2,1.321E3,2E2,1E2,2.5E1,2.9E1,3.9E1,1.8E1,4.4E1,4E0,3.7E1,6.4E1,5.3E1,2.01E2,3.33E2,1.298E3,1.56E2,3.106E3,6.66E2,3.1E2,2.88E2],"tree_param":{"num_deleted":"0","num_feature":"3","num_nodes":"101","size_leaf_vector":"0"}},{"base_weights":[1.6054207E1,1.040971E1,3.5234152E4,-2.8932477E2,6.473317E2,6.3437977E4,1.7608824E4,-4.118466E1,-1.8912826E3,5.1917095E3,-2.796169E2,-1.9374828E4,3.6226793E4,-2.0112758E2,2.9630515E3,-1.2651104E4,-2.6137535E1,1.301623E4,1.6136013E3,-8.231582E3,3.0099234E2,-7.156753E4,2.1878584E4,8.8483125E3,3.9315156E4,1.5604839E2,-1.4036084E3,6.913344E3,-7.541894E3,2.0105236E4,-1.9785475E4,2.510983E4,-3.3915833E3,7.3413237E3,7.697413E4,-9.157876E1,1.2891166E4,-1.1077003E4,3.8999027E4,-5.813842E1,9.316588E3,4.2956312E4,1.05546875E4,-5.5741156E2,1.791086E3,-2.0645283E4,-8.749013E1,-9.357548E2,2.2427604E4,-4.559472E4,9.488926E3,-2.1822727E4,3.5765734E4,-3.378708E4,-1.7453338E4,6.824565E-1,4.135086E4,-1.2120383E4,-1.7108229E3,-1.4923573E4,1.3435022E4,1.15410805E5,5.7986133E4,2.4188389E3,-5.927115E4,2.3784214E5,1.832562E3,2.6708592E4,-1.1897594E4,5.1940875E4,2.4288436E4,-1.1105953E4,3.082055E2,2.0429768E4,-1.4544686E4],"categories":[],"categories_nodes":[],"categories_segments":[],"categories_sizes":[],"default_left":[true,true,true,true,true,false,true,true,true,true,true,true,true,true,true,true,true,true,true,true,true,false,false,false,true,true,true,true,true,true,true,true,true,true,true,true,true,true,true,true,true,false,false,false,false,false,false,false,false,false,false,false,false,false,false,false,false,false,false,false,false,false,false,false,false,false,false,false,false,false,false,false,false,false,false],"id":15,"left_children":[1,3,5,7,9,-1,11,13,15,17,19,21,23,25,27,29,31,33,35,37,39,-1,-1,-1,41,43,45,47,49,51,53,55,57,59,61,63,65,67,69,71,73,-1,-1,-1,-1,-1,-1,-1,-1,-1,-1,-1,-1,-1,-1,-1,-1,-1,-1,-1,-1,-1,-1,-1,-1,-1,-1,-1,-1,-1,-1,-1,-1,-1,-1],"loss_changes":[1.7367185E10,1.6676721E10,5.842352E9,2.3612414E10,1.1775501E11,0E0,7.587494E9,2.4715438E10,1.5988641E11,1.3257272E11,1.0720425E11,1.0178304E10,2.4400998E8,2.0975147E10,1.07945935E11,2.7545787E11,5.7456126E11,5.387862E11,6.2518817E10,2.1276973E11,7.0066045E10,0E0,0E0,0E0,1.7493709E8,4.39245E10,2.832254E11,2.3017187E11,4.61211E11,1.393258E11,3.0986371E10,3.270543E11,8.7858676E10,1.855333E11,8.1617945E10,4.1984072E11,1.06178806E12,4.654845E10,1.5872836E10,8.423583E10,2.201269E11,0E0,0E0,0E0,0E0,0E0,0E0,0E0,0E0,0E0,0E0,0E0,0E0,0E0,0E0,0E0,0E0,0E0,0E0,0E0,0E0,0E0,0E0,0E0,0E0,0E0,0E0,0E0,0E0,0E0,0E0,0E0,0E0,0E0,0E0],"parents":[2147483647,0,0,1,1,2,2,3,3,4,4,6,6,7,7,8,8,9,9,10,10,11,11,12,12,13,13,14,14,15,15,16,16,17,17,18,18,19,19,20,20,24,24,25,25,26,26,27,27,28,28,29,29,30,30,31,31,32,32,33,33,34,34,35,35,36,36,37,37,38,38,39,39,40,40],"right_children":[2,4,6,8,10,-1,12,14,16,18,20,22,24,26,28,30,32,34,36,38,40,-1,-1,-1,42,44,46,48,50,52,54,56,58,60,62,64,66,68,70,72,74,-1,-1,-1,-1,-1,-1,-1,-1,-1,-1,-1,-1,-1,-1,-1,-1,-1,-1,-1,-1,-1,-1,-1,-1,-1,-1,-1,-1,-1,-1,-1,-1,-1,-1],"split_conditions":[1.955E2,2.0015E3,2.125E2,1.9985E3,2.0035E3,3.1718988E4,2.185E2,1.9975E3,9.25E1,9.25E1,2.0045E3,3.5E0,2.295E2,1.9895E3,1.215E2,8.55E1,1.005E2,9.15E1,1.18E2,1.165E2,1.135E2,-3.5783766E4,1.0939292E4,4.4241562E3,2.46E2,1.035E2,1.9915E3,1.035E2,1.225E2,7.9E1,8.85E1,1.9995E3,1.065E2,8.55E1,2.0025E3,1.135E2,4.5E0,8.05E1,4.5E0,2.0055E3,1.175E2,2.1478156E4,5.2773438E3,-2.7870578E2,8.95543E2,-1.0322642E4,-4.3745064E1,-4.678774E2,1.1213802E4,-2.279736E4,4.744463E3,-1.0911363E4,1.7882867E4,-1.689354E4,-8.726669E3,3.4122825E-1,2.067543E4,-6.0601914E3,-8.5541144E2,-7.4617866E3,6.717511E3,5.7705402E4,2.8993066E4,1.2094194E3,-2.9635574E4,1.1892107E5,9.16281E2,1.3354296E4,-5.948797E3,2.5970438E4,1.2144218E4,-5.5529766E3,1.5410275E2,1.0214884E4,-7.272343E3],"split_indices":[1,2,1,2,2,0,1,2,1,1,2,0,1,2,1,1,1,1,1,1,1,0,0,0,1,1,2,1,1,1,1,2,1,1,2,1,0,1,0,2,1,0,0,0,0,0,0,0,0,0,0,0,0,0,0,0,0,0,0,0,0,0,0,0,0,0,0,0,0,0,0,0,0,0,0],"split_type":[0,0,0,0,0,0,0,0,0,0,0,0,0,0,0,0,0,0,0,0,0,0,0,0,0,0,0,0,0,0,0,0,0,0,0,0,0,0,0,0,0,0,0,0,0,0,0,0,0,0,0,0,0,0,0,0,0,0,0,0,0,0,0,0,0,0,0,0,0,0,0,0,0,0,0],"sum_hessian":[8.7366E4,8.7353E4,1.3E1,5.94E4,2.7953E4,4E0,9E0,5.1434E4,7.966E3,4.735E3,2.3218E4,3E0,6E0,4.8835E4,2.599E3,1.176E3,6.79E3,1.485E3,3.25E3,1.579E3,2.1639E4,1E0,2E0,1E0,5E0,3.7652E4,1.1183E4,1.889E3,7.1E2,2.1E2,9.66E2,8.01E2,5.989E3,1.365E3,1.2E2,2.824E3,4.26E2,1.49E3,8.9E1,2.0811E4,8.28E2,4E0,1E0,2.6214E4,1.1438E4,7.15E2,1.0468E4,1.255E3,6.34E2,2.19E2,4.91E2,5.7E1,1.53E2,1.36E2,8.3E2,3.15E2,4.86E2,9.66E2,5.023E3,2.93E2,1.072E3,3.8E1,8.2E1,2.71E3,1.14E2,1.9E1,4.07E2,3.1E1,1.459E3,4.6E1,4.3E1,6.67E2,2.0144E4,5.65E2,2.63E2],"tree_param":{"num_deleted":"0","num_feature":"3","num_nodes":"75","size_leaf_vector":"0"}},{"base_weights":[1.07379675E1,7.4986336E1,-2.5081992E3,7.148125E1,3.7389547E4,-1.2325274E4,1.06192924E2,2.5457926E1,2.5630693E3,-1.0911277E4,-6.866449E4,-2.8990207E2,3.2109385E4,1.13319786E2,-3.2424932E3,3.7058684E4,7.339728E1,-2.1560453E4,-1.2988342E3,-8.6306836E4,7.1506875E3,6.797495E3,-1.5076191E3,1.1590694E4,4.384468E4,8.081108E1,8.0087026E3,-8.786632E3,-6.755171E2,1.4980118E4,6.153503E4,1.4409904E3,-1.0666434E4,-1.7208643E4,-4.641429E4,1.5968065E4,-1.1124361E4,4.08355E4,-3.0109469E4,-2.4549725E4,1.0720579E4,-9.498909E3,1.8294175E3,3.686998E4,-5.1257875E4,4.7838516E4,1.4585708E4,1.0966168E2,-4.107506E3,1.5439406E4,-2.6182168E4,-2.7406441E4,-4.519831E3,-8.966875E3,4.426898E3,5.4305105E4,1.0059922E4,1.1836237E5,5.2387324E4,-7.491035E2,1.7459139E4,-1.499142E4,1.9292584E4,1.3885938E3,-1.7319062E4,-7.190833E2,2.1035672E4,-2.1047814E4,-2.5174565E3,-9.757081E4,-1.5179995E4,-1.191478E4,1.431941E4,-1.9507309E4,2.969623E3,3.568058E4,-1.3155989E3,3.2511223E4,7.787423E4],"categories":[],"categories_nodes":[],"categories_segments":[],"categories_sizes":[],"default_left":[true,true,true,true,false,true,true,true,true,true,true,true,true,true,true,true,true,true,true,false,true,true,true,true,true,true,true,true,true,true,true,true,true,true,false,true,true,false,false,true,true,true,true,false,false,true,false,false,false,false,false,false,false,false,false,false,false,false,false,false,false,false,false,false,false,false,false,false,false,false,false,false,false,false,false,false,false,false,